242 100 97162
been 0.3874659538269043 0.15180210769176483 -0.5714703798294067 -0.20048128068447113 -0.09178712964057922 0.10245613753795624 0.037403617054224014 0.5441149473190308 0.377972811460495 -0.1693207025527954 0.2358417510986328 0.15096233785152435 0.1879197210073471 -0.1951810121536255 -0.42061105370521545 0.3382977843284607 -0.15029428899288177 0.09490177035331726 0.008421595208346844 -0.11740509420633316 -0.15891221165657043 -0.14187395572662354 -0.25638967752456665 0.268554151058197 -0.07519941031932831 0.36412176489830017 0.2276117354631424 0.07387426495552063 -0.7176778316497803 0.2607071101665497 0.3028309941291809 -0.3981421887874603 0.11212372034788132 -0.3843691945075989 -0.07566218078136444 -0.08827812969684601 -0.06796842068433762 0.2574710249900818 0.17713695764541626 -0.2165292650461197 -0.2809608578681946 -0.17745178937911987 -0.11605843901634216 -0.3190365135669708 -0.3811604082584381 -0.40815117955207825 -0.0393269807100296 0.3654616177082062 -0.06856280565261841 0.17884519696235657 0.14691075682640076 -0.2898649275302887 0.025619009509682655 -0.1486765444278717 0.07348713278770447 0.07690703868865967 0.7110579609870911 0.3225683271884918 -0.5494917631149292 -0.22311365604400635 -0.1325898915529251 -0.05911221355199814 -0.013597124256193638 -0.08250399678945541 0.37893375754356384 -0.31833499670028687 0.16675610840320587 -0.1816028654575348 -0.5132407546043396 -0.3452887237071991 0.3033214509487152 -0.1276787519454956 0.46422260999679565 -5.378539208322763E-4 -0.1642460823059082 -0.3410302996635437 -0.2507995665073395 0.06732838600873947 -0.32196858525276184 0.0869535505771637 0.37658053636550903 -0.42662712931632996 -0.035535525530576706 -0.2886532247066498 -0.6755948066711426 0.06702393293380737 0.45259204506874084 -0.0967848151922226 -0.23734980821609497 0.0021124237682670355 0.1731196641921997 0.1440337747335434 -0.07041154056787491 -0.34219223260879517 0.09336626529693604 -0.2528536319732666 0.07716543972492218 -0.21217650175094604 -0.35111698508262634 0.009093099273741245
year 0.11091119796037674 0.2807719111442566 0.10582759976387024 -0.06967046111822128 -0.2245398759841919 -0.12984542548656464 -0.050632867962121964 -0.21597102284431458 -0.05844348296523094 0.35651782155036926 0.024955205619335175 0.022175226360559464 0.06344691663980484 0.15001724660396576 -0.06009332090616226 -0.18984374403953552 -0.03829772397875786 0.4649457335472107 -0.16491560637950897 0.10716964304447174 0.13778091967105865 -0.21358762681484222 0.2817559540271759 -0.3339114189147949 -0.25113731622695923 -0.38748466968536377 0.039941418915987015 -0.06599636375904083 0.18309451639652252 -0.12359468638896942 -0.05183645337820053 0.09869131445884705 0.4696052372455597 -0.3373114764690399 0.18548189103603363 -0.13105060160160065 -0.18982702493667603 -0.005373822059482336 0.20103833079338074 -0.13707208633422852 -0.40877529978752136 -0.26511964201927185 -0.3323841392993927 0.1003628745675087 -0.07381486892700195 0.19587306678295135 -0.039383333176374435 0.20638136565685272 0.061094436794519424 0.3637361228466034 0.2439391165971756 -0.04339742287993431 0.4291713237762451 -0.13659729063510895 -0.09042146056890488 0.10933423042297363 0.22018525004386902 -0.15074938535690308 -0.010022803209722042 -0.2931385338306427 -0.16189870238304138 0.096577487885952 0.09013666957616806 0.34915971755981445 -0.2240108847618103 -0.008101264014840126 0.2585919499397278 -0.2152048647403717 -0.0611722469329834 0.18525294959545135 0.2414100021123886 0.16280265152454376 0.029408926144242287 -0.06957672536373138 0.11692928522825241 0.1175556480884552 0.11400335282087326 0.5064489841461182 -0.038833025842905045 0.08832970261573792 0.13870440423488617 -0.446821391582489 -0.1277036815881729 -0.11856921762228012 -0.3293573260307312 0.13084177672863007 0.33167433738708496 -0.3234483599662781 -0.3264451026916504 -0.325259268283844 -0.23929843306541443 -0.28598856925964355 0.1879240721464157 -0.33252593874931335 0.046761300414800644 0.1605158895254135 -0.13539324700832367 0.2747330367565155 -0.07562725991010666 0.22938665747642517
about -0.12203275412321091 0.13998569548130035 -0.18405550718307495 0.01084145437926054 0.02824750915169716 0.1398463249206543 0.21240605413913727 0.12265349179506302 -0.07846703380346298 0.3730962574481964 -0.0576133169233799 -0.06788480281829834 0.07618196308612823 0.16038545966148376 0.0392952561378479 -0.08824463933706284 0.5207229256629944 0.06654366105794907 0.11810506135225296 -0.17968207597732544 -0.019408270716667175 -0.07347407191991806 0.03153328597545624 -0.22383037209510803 0.18392083048820496 0.05382077768445015 -0.24887828528881073 0.19946640729904175 -0.08819010108709335 0.38283461332321167 0.09095948934555054 -0.11856285482645035 0.2018282115459442 -0.2168809473514557 0.05149718374013901 -0.12418241053819656 -0.12765581905841827 -0.019113615155220032 -0.14206288754940033 -0.31888991594314575 0.31317320466041565 0.2956148087978363 -0.01738525554537773 0.46347716450691223 -0.14237631857395172 0.0456225723028183 0.30580177903175354 -0.04185312241315842 -0.4649721086025238 -0.1478043645620346 0.14358776807785034 -0.11230500042438507 0.3454185724258423 0.2708742022514343 0.04724478721618652 0.002809616969898343 -0.33988168835639954 0.20232439041137695 0.14785316586494446 -0.05604599043726921 0.062125466763973236 -0.1531522125005722 0.13672330975532532 0.10163846611976624 -0.1713312268257141 0.19516266882419586 -0.008921555243432522 -0.5392405390739441 0.3418332040309906 -0.16015367209911346 0.6030004024505615 0.08901438117027283 0.13735206425189972 0.013019115664064884 -0.22063685953617096 -0.09913816303014755 -0.29812443256378174 -0.09567531198263168 -0.07520875334739685 -0.008314489386975765 -0.360232949256897 -0.03535981476306915 0.17898844182491302 -0.3417278528213501 0.17697261273860931 -0.06395822763442993 0.22437816858291626 -0.18018577992916107 -0.28195613622665405 0.02612289786338806 -0.2545563578605652 0.05686071887612343 0.015618262812495232 0.10176427662372589 0.1661163866519928 0.10642874985933304 -0.09723231941461563 0.33901894092559814 -0.18586541712284088 -0.09769036620855331
your -0.419238418340683 -0.1328764408826828 0.12576638162136078 -0.18662554025650024 -0.04785222187638283 0.015276563353836536 -0.281615674495697 0.05580473691225052 0.05296655744314194 0.3130936920642853 0.07731720805168152 -0.20089830458164215 0.15798133611679077 0.3216608166694641 -0.05145909637212753 -0.10192938148975372 -0.15339155495166779 0.0557740181684494 0.1630738526582718 -0.36793702840805054 0.14541266858577728 -0.04548260197043419 0.20167089998722076 0.04659538343548775 0.32371047139167786 0.07212205231189728 -0.060622215270996094 -0.2917101979255676 -0.05350782722234726 0.09428796917200089 -0.18934737145900726 0.3516448140144348 -0.10458555072546005 0.2561262845993042 -0.10292238742113113 0.07401582598686218 -0.5165714025497437 -0.09336093813180923 -0.06871984899044037 -0.2685399353504181 0.39033815264701843 -0.3719619810581207 0.1996399164199829 -0.07325777411460876 -0.19115105271339417 -0.1508767306804657 0.30092117190361023 0.38043051958084106 -0.029449962079524994 -0.2225581407546997 -0.09211473166942596 0.2562894821166992 -0.16860972344875336 0.022506017237901688 0.10367804765701294 -0.01715630292892456 0.20646092295646667 -0.28968048095703125 0.10043271631002426 -0.12939244508743286 -0.17274291813373566 0.45876365900039673 -0.27062976360321045 0.2822456359863281 -0.04028020426630974 0.45240211486816406 -0.003225455293431878 -0.24007463455200195 0.12736326456069946 -0.13670411705970764 0.2281428426504135 0.028355315327644348 0.11211695522069931 -0.19766736030578613 -0.1654885709285736 -0.2304488569498062 -0.08230354636907578 0.10461489856243134 -0.2656920254230499 0.24656113982200623 -0.14113955199718475 0.0798589363694191 -0.08826307207345963 -0.27372145652770996 0.410001665353775 -0.09429745376110077 -0.28426066040992737 0.5357966423034668 -0.05833657458424568 -0.053936172276735306 -0.0777224749326706 0.28033843636512756 -0.13522902131080627 -0.09650071710348129 0.20919199287891388 -6.442047888413072E-4 0.16499346494674683 0.0854291319847107 0.19224350154399872 0.06440567225217819
without -0.1192873939871788 -0.11763663589954376 0.2523319721221924 0.3145490288734436 0.41766446828842163 0.110500767827034 0.06873194128274918 -0.07757158577442169 0.14113472402095795 0.11245588213205338 0.3755636513233185 -0.032213207334280014 0.26589927077293396 -0.18633589148521423 0.037041567265987396 0.2449958771467209 0.03910519555211067 0.09929050505161285 0.015766318887472153 -0.28821104764938354 0.1331387609243393 -0.02726724185049534 0.21895825862884521 -0.017255201935768127 -0.11144985258579254 -0.11661344021558762 -0.04635274410247803 -0.0499982051551342 -0.135270357131958 -1.425208756700158E-4 -0.27232882380485535 0.2152317762374878 -0.08051124960184097 -0.19434620440006256 0.07200790196657181 0.106038399040699 -0.018185308203101158 0.04608779028058052 -0.004972795955836773 -0.047534242272377014 -0.36329373717308044 0.1479436755180359 0.0819644033908844 0.07492721825838089 -0.29382190108299255 -0.1335633397102356 0.04037706181406975 0.1273372918367386 -0.07622529566287994 0.05283883959054947 -0.00873827375471592 -0.06772429496049881 -0.09418971091508865 0.2136896848678589 -0.1769028902053833 0.07009430974721909 0.037659838795661926 -0.21522051095962524 -0.04167375713586807 -0.13948239386081696 -0.053894154727458954 -0.05042552575469017 0.4468652307987213 0.0635349303483963 5.763350636698306E-4 0.06934277713298798 -0.17278513312339783 -0.11329418420791626 0.07480261474847794 0.1595430225133896 0.34002357721328735 0.22028696537017822 0.02109426259994507 -0.11855902522802353 -0.21218694746494293 -0.1388724148273468 -0.09790240973234177 -0.03314239904284477 0.21113456785678864 0.1430916041135788 -0.03605159744620323 0.018877116963267326 0.14272227883338928 -0.08367304503917694 -0.13975687325000763 -0.17697589099407196 -0.04243484511971474 -0.3219395577907562 -0.1306636482477188 -0.06319637596607208 0.0982411578297615 0.03601262718439102 -0.19333596527576447 0.07803630828857422 0.27534279227256775 -0.006343129090964794 0.3962975740432739 -0.0948588028550148 -0.040475182235240936 0.2695775330066681
these -0.31121352314949036 -0.3184660077095032 -0.20157282054424286 -0.053648691624403 0.11671215295791626 0.22887487709522247 -0.04410608485341072 0.04523904249072075 0.2574574649333954 -0.04854772984981537 0.20949122309684753 0.16557234525680542 0.20329168438911438 0.213359996676445 -0.4346262812614441 -0.04833502322435379 -0.1763431280851364 -0.23519054055213928 0.5148060917854309 -0.05866622552275658 0.16058877110481262 -0.29475316405296326 -0.2357412427663803 -0.05257788300514221 -0.04635743796825409 0.12215878069400787 0.20658144354820251 -0.23784151673316956 -0.08148820698261261 -0.3705712854862213 0.1443943977355957 -0.01738768443465233 -0.45283591747283936 -0.3970441222190857 0.32220208644866943 -0.012072439305484295 0.14762921631336212 -0.039595574140548706 0.2820442318916321 0.0704561099410057 -0.08937613666057587 -0.14323943853378296 0.11793135106563568 0.3408466577529907 -0.04633815959095955 0.2728915512561798 0.2932436764240265 -0.0904025137424469 -0.2497212141752243 -0.058223530650138855 -0.09313362836837769 -0.31778740882873535 -0.2358490228652954 -0.13615794479846954 0.16264107823371887 -0.03825573995709419 -0.2892199456691742 -0.14730645716190338 0.04256833717226982 -0.333687424659729 0.11221596598625183 -0.14389072358608246 -0.009603943675756454 -8.648924995213747E-4 -0.28204527497291565 0.298767626285553 0.10334615409374237 0.04523836821317673 -0.029735304415225983 -0.1188250184059143 -0.19134463369846344 -0.2823030948638916 0.01686127856373787 -0.4702814519405365 0.48386630415916443 0.0059500704519450665 0.13010568916797638 -0.09812594950199127 0.12656642496585846 -0.006879955064505339 -0.3112805485725403 -0.31920117139816284 -0.2568114101886749 0.0918499007821083 0.09319666773080826 -0.06112489476799965 -0.4522846043109894 0.1874440312385559 -0.1790328323841095 -0.10386060923337936 -0.4564511477947235 0.04467812925577164 -0.037399616092443466 0.2489674836397171 0.2138333022594452 0.17356008291244507 0.0516529306769371 -0.14075113832950592 0.05881140008568764 0.19455842673778534
companies -0.14543789625167847 -0.1367853879928589 -0.0071510691195726395 -0.01871614158153534 -0.021645797416567802 -0.035245999693870544 0.03503850847482681 0.06595394760370255 0.016451194882392883 0.19604136049747467 -0.27308550477027893 -0.11197135597467422 0.08710520714521408 -0.036543309688568115 -0.09335979074239731 0.04670349135994911 -0.22151827812194824 -0.0830993726849556 0.2802373766899109 -0.08013322949409485 0.0608840137720108 -0.22577832639217377 0.018343904986977577 0.05600994452834129 -0.05169066786766052 0.13039806485176086 0.28894320130348206 0.015710053965449333 -0.10337614268064499 -0.12205628305673599 -0.02497372403740883 -0.11208727955818176 -0.14926667511463165 -0.19250860810279846 0.004722383338958025 -0.08074178546667099 0.07741491496562958 -0.10438335686922073 0.18339046835899353 0.025529302656650543 -0.019802162423729897 -0.1685391515493393 0.09380003809928894 -0.023940235376358032 -0.06411615759134293 0.04264475777745247 0.004993529058992863 0.01787923276424408 -0.047335829585790634 0.2032792717218399 0.1090291365981102 -0.2214023619890213 -0.11353792995214462 -0.12148421257734299 -0.17827105522155762 0.0035458600614219904 -0.16835634410381317 -0.007617969065904617 0.06549112498760223 -0.05704899877309799 0.09861326217651367 -0.10422362387180328 0.08309751749038696 0.24898044764995575 -0.0042177289724349976 -0.06071751192212105 0.024087438359856606 0.14509408175945282 0.007087126839905977 0.150883749127388 -0.20503069460391998 -0.19320078194141388 -0.10862545669078827 -0.18403391540050507 0.17988426983356476 0.14527638256549835 -0.021370939910411835 -0.0665208101272583 0.17419001460075378 -0.11610060930252075 -0.01884256862103939 -0.2244388312101364 -0.054119355976581573 -0.056960586458444595 0.10384894907474518 -0.016684934496879578 0.05073324963450432 0.05313882976770401 0.006480637472122908 -0.09229366481304169 -0.17299701273441315 0.01260143332183361 -0.0033479975536465645 0.08274481445550919 0.0418410561978817 0.08717239648103714 3.0636275187134743E-4 -0.12093432247638702 -0.01913331262767315 0.2161233127117157
music 0.034518420696258545 0.249903604388237 0.20235073566436768 -0.11637994647026062 -0.027750607579946518 -0.05927642807364464 -0.046984605491161346 -0.12437396496534348 -0.06556275486946106 0.05989213287830353 -0.19162267446517944 0.039991699159145355 -0.21319745481014252 0.11048825830221176 0.07054297626018524 0.18347981572151184 -0.29300445318222046 0.0964774414896965 0.04244387522339821 -0.08769293874502182 -0.11015521734952927 -0.030392127111554146 0.06857135146856308 0.13063158094882965 0.14002054929733276 -0.03016289882361889 -0.029313450679183006 0.06857838481664658 -0.2363821417093277 0.09007684141397476 0.254978746175766 0.02883101999759674 0.14698347449302673 -0.006010786164551973 0.1091034784913063 0.013041744008660316 -0.14759927988052368 -0.044617779552936554 -6.238234927877784E-4 0.16074399650096893 0.10788692533969879 -0.09488040953874588 0.19631624221801758 0.11452726274728775 0.12894703447818756 0.017174268141388893 -0.0064808824099600315 -0.018659166991710663 0.22889482975006104 -0.15925981104373932 -0.17336297035217285 0.13987314701080322 0.24353300034999847 0.039482321590185165 -0.04226098209619522 0.08809217065572739 -0.11164072901010513 -0.01453414000570774 0.1267300695180893 0.1714853197336197 0.0988311618566513 0.06267707049846649 -0.10941869020462036 0.10890303552150726 -0.12087603658437729 -0.09240954369306564 0.06180262193083763 -0.006376001052558422 0.0344112329185009 0.1839965283870697 -0.005648378748446703 0.1435508131980896 -0.08607212454080582 0.32207414507865906 -0.10447628796100616 -0.12377776205539703 -0.14191994071006775 0.01106560230255127 0.13006626069545746 0.06304027885198593 0.0020199825521558523 -0.10484302788972855 -0.11184044927358627 -0.046171169728040695 -0.003735714126378298 0.12105909734964371 0.10965477675199509 0.07292672246694565 0.15053437650203705 -0.08668588101863861 -0.39100077748298645 0.14531277120113373 0.1516781598329544 0.08957512676715851 -0.1847786158323288 -0.0588240809738636 -0.030400872230529785 -0.09570031613111496 -0.20838835835456848 -0.1781209260225296
would 0.2688138782978058 -0.2783668637275696 -0.3278532922267914 -0.2031143456697464 0.35247936844825745 -0.1867307871580124 0.09096483141183853 0.14127907156944275 -0.07240758091211319 0.018487153574824333 -0.18430118262767792 0.20689180493354797 0.3012893497943878 0.007580883800983429 0.2850705087184906 0.09007329493761063 0.1545102745294571 0.4496977627277374 -0.22214443981647491 -0.1813669502735138 -0.11384237557649612 -0.0615907646715641 0.13564255833625793 0.1003115177154541 -0.10910040140151978 -0.31152817606925964 0.0651218518614769 0.06880206614732742 -0.008843337185680866 0.40922409296035767 -0.0259453933686018 0.23311592638492584 0.07607919722795486 0.01847122237086296 0.18793576955795288 0.030636906623840332 0.12752105295658112 0.18945538997650146 -0.1573750376701355 0.06295539438724518 -0.2703667879104614 0.08011338114738464 0.1097899079322815 -0.25334635376930237 -0.09415309131145477 0.16413474082946777 0.10972126573324203 0.10542629659175873 0.13475391268730164 0.05870291590690613 -0.09109131991863251 -0.41105231642723083 -0.12834878265857697 0.0990060344338417 0.3001692593097687 0.11933592706918716 0.2641439735889435 -0.0363481380045414 0.1526223123073578 -0.08532465994358063 0.13387273252010345 0.04747054725885391 0.18403859436511993 -0.04612335190176964 -0.028016267344355583 -0.21350924670696259 -0.06156462803483009 0.30041074752807617 -0.029062116518616676 0.15393367409706116 -0.06680392473936081 0.015957478433847427 0.03768385201692581 -0.003315089736133814 -0.05378687009215355 0.2375195026397705 -0.01929319091141224 -0.10646599531173706 0.05145180970430374 0.1892261952161789 -0.20563355088233948 -0.012636770494282246 -0.21363741159439087 0.1858452409505844 0.2590619921684265 0.09759673476219177 -0.01285203080624342 -0.05931307002902031 -0.03808090463280678 0.08650801330804825 -0.017324227839708328 0.1962794065475464 -0.2968217134475708 0.38760906457901 0.19195222854614258 0.14521536231040955 0.009996620006859303 -0.5493005514144897 -0.009401069022715092 0.2201441526412964
because -0.059599753469228745 0.12002119421958923 -9.5600844360888E-4 0.19887690246105194 0.23745612800121307 0.11921361088752747 -0.05255284905433655 -0.26697155833244324 -0.15759211778640747 -0.023835191503167152 0.21719318628311157 0.09881549328565598 0.19218753278255463 0.16756218671798706 0.04787824675440788 0.11078893393278122 -0.11138999462127686 0.19225427508354187 -0.045714396983385086 -0.06885521113872528 -0.12791751325130463 0.2720218300819397 0.05523611977696419 0.014171409420669079 0.043410807847976685 -0.08949222415685654 -0.0718628540635109 0.05026886239647865 -0.1939970999956131 -0.12882980704307556 -0.005168294534087181 0.11399120837450027 0.051393985748291016 -0.05486147850751877 -0.020890865474939346 0.05872334539890289 0.12434668838977814 -0.17278262972831726 0.03135596588253975 -0.07957615703344345 -0.023557808250188828 -0.007635132409632206 4.1825236985459924E-4 0.08122292906045914 -0.07963227480649948 0.16126497089862823 0.06903523206710815 0.13975556194782257 -0.16165471076965332 0.005200175568461418 -0.2945680022239685 -0.13946816325187683 -0.04973337799310684 0.15430158376693726 -0.07351134717464447 -0.0629304051399231 -0.1062987819314003 0.2618018686771393 0.030546272173523903 0.08847660571336746 0.19286604225635529 -0.1930287778377533 -0.032354094088077545 0.01697716675698757 0.04845711588859558 -0.06735075265169144 0.04261971637606621 -0.01378052867949009 0.1319524198770523 -0.05008156970143318 0.11074526607990265 0.029572268947958946 -0.07185371220111847 0.016775179654359818 -0.047858357429504395 -0.22924698889255524 -0.1679174304008484 -0.11885938793420792 -0.15476959943771362 -0.019968921318650246 -0.22366414964199066 0.00859449990093708 -0.10311169922351837 -0.04076388478279114 -0.2660664916038513 0.12372973561286926 0.0421590581536293 -0.19018997251987457 0.01479284930974245 0.2814355790615082 0.18897517025470734 -0.027956530451774597 -0.09305312484502792 0.009917209856212139 -0.10282623022794724 -0.18998847901821136 -0.05775143578648567 -0.2739998400211334 -0.26454436779022217 0.1025046557188034
state -0.21193353831768036 0.061143483966588974 0.07419885694980621 0.05132952332496643 0.007500700186938047 -0.11787848174571991 -0.15649157762527466 -0.24420976638793945 0.08318020403385162 0.09732959419488907 -0.2205294370651245 -0.020656006410717964 0.06973955035209656 -0.2531716823577881 0.0016476621385663748 -0.0074122934602200985 -0.3117344379425049 0.2049655169248581 0.15618863701820374 -0.16071580350399017 0.08022264391183853 -0.28849759697914124 -0.15707004070281982 -0.1393156349658966 -0.2110363245010376 0.1357005536556244 0.060713838785886765 0.06948499381542206 -0.16520096361637115 0.02896416373550892 0.061597634106874466 -0.10695938020944595 0.08960973471403122 -0.09531568735837936 -0.019741304218769073 0.2024746984243393 -0.11336775124073029 -0.03863876685500145 0.11762917041778564 0.07960601896047592 -0.21569693088531494 -0.11811859905719757 -0.057084377855062485 0.20176923274993896 0.002380127552896738 -0.029042275622487068 -0.12077535688877106 0.025137444958090782 0.09821762144565582 0.041901931166648865 0.08568188548088074 -0.03756585344672203 0.2282559722661972 -0.007644859608262777 -0.23565851151943207 0.13334603607654572 -0.053290072828531265 -0.07602614909410477 0.0673387199640274 -0.005707122385501862 0.17429183423519135 0.07663806527853012 -0.0651731863617897 0.2722755968570709 -0.3389703929424286 0.06269345432519913 0.38936230540275574 -0.02549770660698414 0.022992273792624474 0.4076370298862457 -0.033606380224227905 0.059122685343027115 -0.045890193432569504 0.15817175805568695 -0.11585341393947601 -0.2537411153316498 -0.16190241277217865 0.0088522769510746 0.15018455684185028 0.17055852711200714 0.1471254676580429 -0.27846693992614746 -0.09125147014856339 -0.1710210144519806 -0.09728308767080307 -0.031758543103933334 0.09087209403514862 0.13695509731769562 -0.047188807278871536 -0.017557527869939804 -0.12930960953235626 -0.08576074242591858 0.1010676771402359 -0.0013003203785046935 -0.041121795773506165 0.1374841183423996 0.19479215145111084 0.07494024932384491 -0.18302585184574127 0.19084662199020386
you 0.26846739649772644 0.06208644434809685 -0.12674368917942047 0.12925417721271515 0.14204353094100952 -0.13136111199855804 -0.13546591997146606 0.1936255544424057 0.2548939287662506 0.16479098796844482 -0.1996421366930008 0.17178314924240112 0.11247127503156662 0.08499743789434433 0.025302357971668243 -0.0756785199046135 -0.03662155568599701 -0.19402751326560974 0.002647868823260069 -0.13967084884643555 -0.1400371938943863 -0.09172526001930237 0.01563841663300991 0.1393265426158905 0.1088082417845726 0.20255134999752045 -0.0908530056476593 -0.03855467215180397 0.37381964921951294 0.13978859782218933 -0.1000177413225174 0.1730329841375351 0.08969014137983322 -0.11338413506746292 -0.0848039910197258 0.25563761591911316 -0.11135770380496979 -0.16343142092227936 0.26852115988731384 -0.06486339867115021 0.21181142330169678 -0.18459999561309814 0.1601455956697464 -0.05912201479077339 -0.09339091181755066 0.19000455737113953 -0.14686506986618042 -0.054221682250499725 -0.14283329248428345 0.07984454184770584 -0.1622113585472107 0.04508892819285393 -0.029399355873465538 0.16571563482284546 0.11589270085096359 0.27139973640441895 -0.20659056305885315 -0.12347331643104553 0.14379297196865082 -0.15811540186405182 0.13230372965335846 0.07220251113176346 0.03772347792983055 0.0924343690276146 -0.13482601940631866 0.31542983651161194 -0.5644357204437256 -0.002440545242279768 -0.22115081548690796 -0.08895495533943176 -0.25734588503837585 0.05204861983656883 0.08588653802871704 -0.1836126744747162 -0.20742447674274445 0.0714825838804245 -0.19369463622570038 -0.265362024307251 -0.09953157603740692 -0.33440133929252625 0.35391727089881897 -0.21934445202350616 -0.00746093550696969 0.027843952178955078 0.2629373073577881 -0.22485004365444183 0.06366052478551865 0.048889946192502975 0.12353165447711945 -0.03884812071919441 0.2003623992204666 0.023619387298822403 -0.26301348209381104 0.11129932850599289 -0.10881629586219788 -0.019429858773946762 -0.29542282223701477 -0.06090337783098221 -0.18708200752735138 0.3689086139202118
they -6.759414100088179E-4 -0.13667088747024536 0.1562059074640274 -0.3232181966304779 -0.0020621491130441427 -0.13310150802135468 0.22679086029529572 0.1596633940935135 0.11155044287443161 0.07916735112667084 0.06272440403699875 0.07609020173549652 0.03360892832279205 -0.061871238052845 0.1001594215631485 -0.12787404656410217 0.04318801686167717 2.3781968047842383E-4 0.10730792582035065 0.15627974271774292 -0.18760864436626434 -0.11376786231994629 -0.05399991199374199 0.108889639377594 0.021425697952508926 0.20852668583393097 -0.02462613210082054 -0.21903716027736664 0.48095402121543884 -0.12348378449678421 -0.07438643276691437 0.23775526881217957 -0.2660502791404724 -0.05837579444050789 -0.035407088696956635 -0.09121055901050568 0.15827390551567078 0.2727138102054596 0.1810154914855957 -0.2281363159418106 0.23071856796741486 -0.21656568348407745 0.16917704045772552 0.16698217391967773 -0.18877916038036346 -0.02876146323978901 -0.1730491816997528 -0.1852143108844757 -0.004154576454311609 -0.05216772481799126 -0.04168359935283661 -0.26791465282440186 -0.10197566449642181 0.20652376115322113 0.2731475830078125 0.1403801441192627 -0.09766356647014618 -0.07182283699512482 -0.012628672644495964 -0.2504458725452423 0.18266785144805908 -0.18501226603984833 0.2731241285800934 0.3164028227329254 -0.053645193576812744 0.36276954412460327 -0.22669602930545807 -0.09387161582708359 -0.2438027709722519 0.1622300148010254 -0.378755122423172 -0.061249855905771255 -0.06502889841794968 -0.1128675639629364 -0.05992615222930908 0.2967190444469452 0.0401209220290184 -0.1152748093008995 0.07756251841783524 -0.10203242301940918 0.012375814840197563 -0.17132531106472015 0.27347075939178467 0.07719998061656952 0.0718955248594284 -0.06153120473027229 -0.1264353096485138 0.03140270337462425 -0.08632831275463104 -0.03795584663748741 -0.15366391837596893 0.016106948256492615 -0.07524516433477402 0.11435474455356598 -0.004668332636356354 -0.06493731588125229 0.07469248026609421 -0.08468091487884521 -0.18933159112930298 0.3195628821849823
$ -0.04728076606988907 0.013929544016718864 0.029312126338481903 -0.010324850678443909 -0.033450379967689514 0.0066335187293589115 -0.021058276295661926 0.0186208076775074 0.01349888276308775 0.008065737783908844 -0.022961800917983055 -0.061151374131441116 0.009982788935303688 0.010248508304357529 0.0126645527780056 0.02201799303293228 -0.025991233065724373 0.007944529876112938 0.008572067134082317 -0.056747857481241226 -0.004152987617999315 -0.011624849401414394 0.07840465009212494 0.01337655633687973 0.012889486737549305 -0.011181643232703209 0.07255315035581589 0.02039317414164543 -0.01763882488012314 -0.009091619402170181 0.02528712898492813 0.01529990416020155 -0.03481629490852356 -0.01436123251914978 -0.006438488140702248 0.005977926310151815 -0.016334466636180878 -0.02247154340147972 0.038320835679769516 0.01811838150024414 -0.039942603558301926 -0.041568681597709656 0.014777163043618202 -0.013039670884609222 -0.012766413390636444 0.015064501203596592 -0.011301632970571518 0.04909270629286766 0.0064707426354289055 0.028697792440652847 -0.015204096212983131 -0.008122069761157036 -0.03814523294568062 0.01355451438575983 -0.032090749591588974 0.027080366387963295 -0.006020680069923401 -0.03559238836169243 -0.011680551804602146 -0.020258968695998192 1.1205393821001053E-4 -0.012646705843508244 -4.2113522067666054E-4 -0.010990502312779427 0.036165229976177216 0.00796123594045639 -0.006692187860608101 0.023856425657868385 -0.015042230486869812 0.02420668490231037 -0.02067648619413376 -0.0152694471180439 0.0036630560643970966 -0.0015596260782331228 0.025461256504058838 0.01615453138947487 0.008801240473985672 -0.038893282413482666 0.01372204814106226 -0.010931884869933128 -0.003109046956524253 -0.012192422524094582 -0.03227131813764572 0.021445218473672867 0.0388064906001091 0.010228697210550308 -0.005501546896994114 0.01797064021229744 0.016198841854929924 -0.014144187793135643 -0.013876918703317642 0.027815932407975197 -0.010739605873823166 0.0010711107170209289 0.0022533065639436245 0.013830148614943027 0.02955918200314045 -0.029152685776352882 0.014703458175063133 0.017694443464279175
going -0.554368257522583 -0.12258052825927734 0.05907612293958664 -0.4749436676502228 -0.08099623769521713 0.08694631606340408 0.13930854201316833 0.12989182770252228 -0.12239804863929749 -0.15676504373550415 0.19416145980358124 -0.4948093593120575 0.3132249712944031 0.2677704095840454 -0.04697027802467346 -0.00940735824406147 0.35693442821502686 0.3888528645038605 -0.05058884248137474 0.05118715390563011 -0.16093838214874268 0.425820529460907 0.2714206874370575 -0.05593188479542732 0.252621054649353 -0.3699880540370941 -0.11670845001935959 -0.1577797681093216 0.06484679132699966 0.10441640019416809 0.11093214154243469 0.13327917456626892 0.08073976635932922 -0.06465614587068558 -0.016770632937550545 0.4363490343093872 -0.09043188393115997 -0.5412366390228271 -0.041941482573747635 -0.2155720293521881 0.04344101622700691 -0.41813725233078003 -0.0547252856194973 -0.041464924812316895 -0.14463667571544647 0.10640586167573929 -0.19182774424552917 -0.03821171075105667 -0.467377245426178 0.09272930771112442 -0.10396566987037659 -0.025471804663538933 0.15561699867248535 -0.05459713935852051 0.10112279653549194 0.11646071821451187 0.10823915153741837 -0.07171375304460526 -0.2422262579202652 -0.12721669673919678 0.34685781598091125 0.3199685215950012 -0.24049416184425354 -0.23595933616161346 0.21021905541419983 0.08014374226331711 -0.5696774125099182 0.17082585394382477 0.29581645131111145 0.34220606088638306 -0.35382288694381714 0.18609029054641724 0.08604498207569122 -0.1467931568622589 0.10594877600669861 0.00292360782623291 -0.1577429622411728 0.15370948612689972 -0.510511577129364 -0.08603674173355103 -0.1623336672782898 0.010779091157019138 -0.01716703549027443 0.0569843091070652 0.1238761618733406 0.08953475952148438 -0.18594667315483093 0.16418951749801636 0.4063994884490967 -0.1291976422071457 0.2954654097557068 0.26620739698410034 -0.05919944867491722 0.004587738309055567 -0.16043546795845032 0.06634052842855453 0.06104331463575363 -0.14119702577590942 0.07839225232601166 0.16964219510555267
old -0.23952676355838776 -0.22822009027004242 0.15505844354629517 0.16724227368831635 -0.11981412768363953 0.20910325646400452 -0.020640350878238678 0.13956111669540405 0.06298623234033585 0.010169928893446922 -0.18274302780628204 -0.17869673669338226 0.0255159642547369 0.2430655062198639 -0.2576448321342468 -0.16009242832660675 -0.38534078001976013 0.10646185278892517 0.13041828572750092 -0.23340612649917603 -0.07784625887870789 -0.2050912231206894 0.0043096477165818214 0.0903395414352417 -0.047422658652067184 -0.20207364857196808 0.03746970742940903 -0.0657668188214302 -0.46200382709503174 -0.05714704096317291 0.0465521477162838 -0.3224737048149109 -0.23829124867916107 -0.23477794229984283 -0.09649544209241867 0.16102655231952667 0.09934104979038239 -0.16807544231414795 -0.22207511961460114 0.22678659856319427 -0.12100298702716827 -0.20329733192920685 -0.1755145639181137 0.0032858052290976048 0.04226379841566086 -0.06316585093736649 -0.0439542680978775 -0.4203561544418335 0.33538877964019775 -0.1293257772922516 -0.001030329498462379 -0.06474336981773376 0.21077530086040497 -0.16707810759544373 0.11076787859201431 -0.13720034062862396 -0.16472622752189636 -0.15375904738903046 -0.023309815675020218 0.05630212649703026 0.0845283567905426 -0.3021426796913147 -0.2420547753572464 -0.23451347649097443 -0.4286838471889496 -0.013242806307971478 0.15569882094860077 0.1642102301120758 -0.115831658244133 0.1517294943332672 -0.05047696828842163 -0.18902216851711273 -0.009623694233596325 0.09060752391815186 0.21904289722442627 -0.19720637798309326 -0.23253928124904633 0.16418229043483734 -0.11312457919120789 0.10166289657354355 -0.2367355078458786 -0.20595791935920715 -0.22719402611255646 -0.15344485640525818 0.013924343511462212 -0.037359513342380524 -0.11127062886953354 0.19279412925243378 0.032952677458524704 -0.27709996700286865 -0.04473850876092911 0.03462059423327446 -0.11612597107887268 -0.006070558447390795 -0.05359301716089249 0.22766584157943726 0.013583858497440815 -0.20783697068691254 0.24147315323352814 0.2982354760169983
night 0.3596057891845703 0.36423608660697937 0.44552311301231384 -0.34064334630966187 -0.12065654247999191 -0.24607405066490173 0.06481176614761353 -0.13481396436691284 -0.1497930884361267 0.16376186907291412 0.09210309386253357 -0.08029299229383469 -0.012786632403731346 0.06798300892114639 -0.035455986857414246 -0.2199263870716095 -0.1657361090183258 0.16033460199832916 -0.2363681048154831 0.29426947236061096 -0.13343633711338043 -0.16907517611980438 0.5229455232620239 -0.24582234025001526 -0.049807894974946976 -0.3083896338939667 -0.06437993049621582 -0.016948770731687546 -0.044525351375341415 0.11069709062576294 0.033520352095365524 -0.029882576316595078 0.5535134077072144 -0.14875975251197815 0.030904557555913925 -0.19366256892681122 0.13371659815311432 -0.03324895724654198 0.2128853052854538 0.08054885268211365 -0.16915631294250488 -0.27173882722854614 -0.22688934206962585 -0.041587550193071365 -0.2897678017616272 -0.1988004446029663 -0.19150476157665253 -0.1402537226676941 0.041571199893951416 -0.11048837751150131 0.026880109682679176 0.0917600691318512 0.2634265720844269 -0.24614690244197845 -0.11452878266572952 -0.15513867139816284 -0.09562771767377853 -0.027776310220360756 0.05740968510508537 -0.3481341004371643 -0.17467637360095978 0.04633395001292229 -0.2168479859828949 0.171675443649292 0.030197903513908386 -0.013107536360621452 0.20011185109615326 -0.047990817576646805 -0.22515170276165009 0.06410624831914902 0.35458624362945557 0.2652249038219452 0.02625688537955284 0.3405262231826782 0.06915376335382462 0.012137374840676785 0.4724721610546112 0.24755029380321503 0.15470707416534424 0.014032079838216305 0.09347820281982422 -0.19596008956432343 -0.30102255940437317 0.04407868534326553 -0.2133178412914276 0.1669822484254837 -0.09068438410758972 -0.05892414227128029 -0.21550172567367554 -0.4167000949382782 -0.16479763388633728 -0.06057589128613472 0.019966984167695045 0.047976233065128326 -0.06255847215652466 0.29309576749801636 -0.07759495824575424 0.18840038776397705 -0.08964461833238602 0.02211518958210945
want -0.2180645912885666 -0.14543960988521576 -0.048965733498334885 0.16064663231372833 0.3804783523082733 -0.07748351246118546 0.02144496887922287 -0.15318040549755096 0.10373176634311676 0.05956901237368584 0.11382253468036652 -0.689654529094696 0.3068276047706604 -0.19960196316242218 0.09558404982089996 0.3126596212387085 0.2598213255405426 -0.04212243854999542 -0.24028164148330688 -0.018686478957533836 0.11223635077476501 -0.030563870444893837 0.19650718569755554 -0.19456353783607483 0.2264251410961151 -0.10245475172996521 0.027169428765773773 0.08649680763483047 0.11317718774080276 0.2752341628074646 -0.12052714824676514 0.4995550513267517 0.27875036001205444 0.2213994413614273 0.22161340713500977 0.05404946580529213 -0.33280429244041443 -0.4295370876789093 -0.07429167628288269 0.03733648732304573 -0.033625487238168716 0.17762957513332367 0.20888090133666992 -0.10777298361063004 0.120829276740551 -0.1269962340593338 0.16810666024684906 0.06646241992712021 -0.275130033493042 0.14781513810157776 -0.25753846764564514 -0.04104462265968323 -0.14865092933177948 0.13435234129428864 0.1723332405090332 0.22730626165866852 -0.023441670462489128 -0.24463815987110138 -0.12785562872886658 -0.2112584412097931 0.13126149773597717 -0.0637020394206047 -0.006406222935765982 0.025828512385487556 0.034126460552215576 0.004095166455954313 -0.22999051213264465 0.11880893260240555 0.20533356070518494 0.1985669583082199 0.08855380862951279 7.249400368891656E-4 -0.09062217175960541 -0.17397622764110565 -0.2101954221725464 0.22919192910194397 0.19768062233924866 -0.2921399772167206 0.26778513193130493 -0.14193153381347656 -0.13582298159599304 0.23650003969669342 -0.23317386209964752 0.20321209728717804 0.533618152141571 0.03227926790714264 -0.09025483578443527 -0.1327507495880127 0.15156184136867523 0.006572033744305372 -0.03160756453871727 -0.023122789338231087 0.04710841923952103 0.3066222369670868 0.265384316444397 0.3852654993534088 0.1489943265914917 -0.29372498393058777 -0.12916018068790436 -0.11565271764993668
them 0.18596109747886658 0.018485160544514656 0.032234035432338715 -0.04066496714949608 -0.13681243360042572 0.20613771677017212 -0.022981630638241768 0.04051242396235466 -0.05943196639418602 -0.24996250867843628 -0.01963701844215393 0.15984247624874115 -0.08370507508516312 0.3201277256011963 -0.1870550811290741 0.3495407998561859 -0.3383152186870575 0.18310599029064178 0.08109743148088455 -0.181641086935997 -0.08270540088415146 -0.20153573155403137 0.18443939089775085 0.028216838836669922 0.2213411033153534 -0.07113593071699142 0.3345995545387268 0.01532206404954195 0.17275471985340118 -0.2803914546966553 0.07279299944639206 0.18207651376724243 0.06804240494966507 -0.12520746886730194 0.3171488046646118 -0.02096434310078621 -0.14765429496765137 -0.07739350199699402 0.2344953417778015 0.008723662234842777 -0.05073646828532219 -0.3273704946041107 -0.009304117411375046 0.22192063927650452 -0.05334741622209549 0.1582266390323639 0.08565317839384079 0.22669664025306702 -0.09156527370214462 -0.02094956859946251 -0.30361223220825195 -0.16385236382484436 -0.1342056542634964 0.11483310163021088 0.23799289762973785 0.08064737915992737 0.0770561695098877 0.01706559956073761 -0.11772577464580536 -0.30314311385154724 0.05164531618356705 -0.18764813244342804 -0.1844177097082138 0.2872507572174072 0.14136625826358795 0.010020546615123749 -5.10384445078671E-4 0.054927654564380646 0.038594044744968414 -0.009861276485025883 -0.05190384015440941 -0.14111320674419403 -0.08601640164852142 -0.23680052161216736 0.15017463266849518 -0.02289631776511669 0.4741755723953247 -0.1372273862361908 0.4066668450832367 -0.07910025119781494 -0.022808505222201347 -0.14623965322971344 -0.22925105690956116 0.11545645445585251 0.09879839420318604 -0.02032850682735443 -0.07390724867582321 0.16272859275341034 0.12883663177490234 -0.11659050732851028 0.043645329773426056 -0.1735338717699051 -0.030856268480420113 0.23718523979187012 -0.20859238505363464 0.030072350054979324 -0.07254976779222488 -0.2994430661201477 -0.21660932898521423 0.1504809558391571
then 0.12405076622962952 0.030471596866846085 0.15221713483333588 -0.21132820844650269 0.31675758957862854 -0.22309133410453796 0.15604020655155182 -0.1065215989947319 -0.23347970843315125 -0.0025636949576437473 0.0694584995508194 -4.7178566455841064E-4 0.14183594286441803 0.06170320883393288 0.05213955417275429 -0.16991634666919708 -0.14153599739074707 0.051999226212501526 0.021116366609930992 -0.1073598861694336 -0.03417956829071045 0.07782544195652008 -0.1310269981622696 0.06813198328018188 -0.05114224553108215 -0.1581694483757019 -0.12015824764966965 -0.039770595729351044 0.04735526815056801 -0.13685043156147003 -0.21668420732021332 0.03272248059511185 -0.22583439946174622 0.19072307646274567 0.325962632894516 -0.2128109633922577 0.001316604670137167 -0.13998542726039886 0.06788706034421921 -0.08151286840438843 -0.06077757477760315 -0.4063993990421295 -0.035968903452157974 -0.07466457784175873 0.02463998645544052 -0.1831624060869217 0.3190370202064514 -0.0076928772032260895 -0.2954065501689911 0.11372832953929901 0.04336503893136978 0.05000373721122742 0.26034295558929443 -0.2038346379995346 -0.10929001867771149 0.0838640034198761 -0.1510895937681198 0.08772052824497223 0.1077667847275734 -0.07400548458099365 0.045106738805770874 0.0301132183521986 -0.020089292898774147 -0.020602142438292503 -0.30267205834388733 -0.016099266707897186 -0.03113381937146187 -0.1335171014070511 0.011269405484199524 0.019520705565810204 -0.02829422801733017 0.10126107931137085 0.1949683427810669 -0.20672960579395294 -0.05882656201720238 -0.07966823875904083 0.22041718661785126 -0.143685981631279 -0.027333419770002365 0.24569469690322876 0.17106963694095612 0.07759704440832138 -0.029403790831565857 0.2711084187030792 -0.1036570817232132 0.09464699029922485 -0.1362857073545456 -0.17108570039272308 -0.025702087208628654 -0.35475125908851624 0.2577045261859894 0.10020892322063446 0.14282962679862976 -0.050762493163347244 -0.12522925436496735 0.15650993585586548 0.27867066860198975 0.022500067949295044 0.04097454994916916 -0.1872495710849762
court -0.11686272919178009 0.21828526258468628 0.2565631866455078 -0.11384627968072891 0.017256615683436394 -0.0943334549665451 -0.07525082677602768 -0.2999282479286194 0.07621649652719498 0.19800038635730743 0.02566446177661419 -0.2716875672340393 0.20955529808998108 -0.1830178052186966 -0.04714726656675339 -0.15309341251850128 -0.1520008146762848 0.30650144815444946 -0.05432223901152611 0.007735537830740213 0.007634889334440231 0.07492437213659286 0.0227341465651989 -0.07098189741373062 -0.0342446006834507 0.07914352416992188 -0.05278588831424713 -0.05811089649796486 -0.030542677268385887 0.1546928882598877 0.13029049336910248 -0.006693252362310886 0.1329864263534546 -0.042570505291223526 0.04114163666963577 0.2722172737121582 -0.01740492880344391 -0.11195718497037888 0.16282178461551666 0.04917213320732117 -0.039265409111976624 -0.18355333805084229 -0.04447319731116295 -0.0452134944498539 0.030924223363399506 -0.018502024933695793 0.023319393396377563 -0.07086817920207977 0.03633204475045204 -0.22670407593250275 -0.008100171573460102 0.15145562589168549 0.1194174587726593 -0.016951996833086014 -0.1593967080116272 0.0636972188949585 -0.04925566539168358 -0.08913792669773102 -0.09199307858943939 -0.035104334354400635 -0.04916953667998314 0.20778129994869232 -0.17426809668540955 -0.040128111839294434 0.02841169200837612 0.012062541209161282 0.16322334110736847 0.07849154621362686 -0.020803164690732956 0.22271208465099335 -0.0377616249024868 0.09743963181972504 -0.06136610358953476 0.13941067457199097 -0.10856152325868607 -0.07848751544952393 -0.05499734356999397 -0.0072928545996546745 0.08415138721466064 0.11428971588611603 0.1920299082994461 -0.06256819516420364 -0.02189665101468563 0.024327898398041725 -0.11686684191226959 0.19631023705005646 0.0816228911280632 0.20078444480895996 0.07641948014497757 -0.1391953080892563 0.08495227247476578 0.062026895582675934 -0.09141532331705093 0.024157429113984108 -0.20487026870250702 0.054434940218925476 0.2273699939250946 0.01675301045179367 -0.29333701729774475 0.06864828616380692
an -0.38616907596588135 -0.13807891309261322 0.29706811904907227 -0.036564890295267105 -0.1044473946094513 -0.16644610464572906 -0.14304602146148682 -0.08021045476198196 -0.1867748647928238 0.07427235692739487 -0.23669034242630005 -6.16744568105787E-4 0.2775801122188568 0.11329387873411179 -0.16785065829753876 -0.026713011786341667 -0.15213711559772491 0.21767368912696838 -0.025668177753686905 0.0048472220078110695 0.02819317765533924 -0.04382626339793205 0.13265012204647064 0.12913784384727478 0.14242784678936005 -0.19301831722259521 0.15419268608093262 0.15414248406887054 -0.13321553170681 0.07916910201311111 -0.08474396169185638 -0.24562624096870422 0.19090263545513153 -0.14100868999958038 -0.06693094223737717 0.05265079811215401 -0.03803418576717377 -0.2040056735277176 0.023683134466409683 -0.1331535428762436 -0.12309132516384125 -0.14662817120552063 0.07330314815044403 -0.03305039927363396 -0.20510347187519073 -0.2057553380727768 -0.067196786403656 0.04922276362776756 -0.06152687221765518 0.11670379340648651 -0.1838928461074829 0.09895455092191696 -0.02426103875041008 0.05217152461409569 -0.18359151482582092 0.0017462807008996606 -0.02206198126077652 -0.16377080976963043 -0.175039142370224 -0.02166244015097618 0.022022588178515434 0.03668173402547836 -0.005538094788789749 -0.006675918120890856 -0.06997043639421463 0.0802648663520813 -0.04536272957921028 -0.09245415776968002 -0.18477973341941833 0.11838176846504211 0.1937364935874939 0.1638338416814804 0.09889715909957886 0.10407710075378418 -0.24024853110313416 -0.09705710411071777 0.10992605984210968 0.15154516696929932 0.18475428223609924 -0.08495330065488815 0.18436242640018463 -0.01801145449280739 -0.007298923563212156 -0.004531924147158861 0.11373197287321091 -0.3639454245567322 -0.092658631503582 0.03890048712491989 0.17282530665397644 -0.29388079047203064 0.3207080662250519 -0.07854310423135757 -0.07326453924179077 -0.15894050896167755 0.0801844447851181 0.14964570105075836 0.2421245127916336 0.1557198315858841 0.2136395275592804 0.16021881997585297
- -0.08303327858448029 0.03011460229754448 0.014404494315385818 -0.056722041219472885 -0.029387643560767174 -0.01941954344511032 -0.10780961811542511 -0.05156883969902992 -0.07929590344429016 0.016588030382990837 -0.05761056765913963 0.035745590925216675 0.01678990200161934 0.152811199426651 0.020097855478525162 -0.10750942677259445 -0.09282585978507996 0.044323891401290894 0.021748624742031097 -0.061320457607507706 0.043771401047706604 -0.06547264754772186 0.0329090878367424 -0.0825781300663948 0.03063064254820347 -0.04210948199033737 0.10158463567495346 -0.001496363547630608 -0.15106749534606934 -0.05034759268164635 -0.03123881109058857 -0.03047250770032406 0.04794430732727051 -0.10953518003225327 0.047763075679540634 -0.1273433268070221 -0.10196977108716965 -0.023519856855273247 0.11259737610816956 -0.08033905178308487 -0.0502372607588768 -0.06977030634880066 -0.04932504892349243 0.09082449227571487 0.019404472783207893 -0.07997825741767883 -0.007360578048974276 -0.0010922783985733986 -0.04717487841844559 0.027858635410666466 0.026828205212950706 0.06199416518211365 0.14365626871585846 -0.1032840684056282 0.014466863125562668 0.05026261508464813 -0.07797800749540329 0.020879890769720078 -0.0648573562502861 -0.06461308151483536 -0.025085896253585815 -0.061870455741882324 -0.04821954295039177 0.1285797357559204 -0.09691742807626724 0.018416957929730415 -0.07765224575996399 -0.08100784569978714 -0.07861172407865524 0.09343370795249939 0.031221000477671623 -0.03214762359857559 0.10614228993654251 0.10679495334625244 -0.06472673267126083 -0.05300292745232582 0.07176943868398666 0.10060646384954453 0.017478657886385918 0.07213038951158524 -0.06346022337675095 -0.09763719886541367 0.036790166050195694 -0.06210717558860779 -0.09220287203788757 0.01677626185119152 0.008106717839837074 -0.01577359437942505 0.002715735463425517 -0.11186037957668304 0.007243837229907513 0.01772521808743477 0.028762122616171837 -0.13811177015304565 0.0016312473453581333 0.053374338895082474 -0.002710499567911029 0.21728835999965668 -0.03838183730840683 -0.01697569526731968
former -0.03128887340426445 0.032808881253004074 0.058711640536785126 0.0037486094515770674 -0.021782273426651955 -0.039488207548856735 -0.030958613380789757 -0.0376780740916729 -0.00989861786365509 0.06936866790056229 -0.03596409782767296 0.01575840264558792 -0.00695041473954916 -0.010799864307045937 -0.005963034927845001 -0.012032669968903065 -0.06676948815584183 0.06142038851976395 0.046254418790340424 -0.035070452839136124 0.00525457039475441 -0.04762602597475052 -0.025267483666539192 -0.00702992919832468 0.0028540543280541897 0.02698652446269989 0.023979444056749344 0.0036974051035940647 -0.06347689032554626 -0.0018171819392591715 0.014688683673739433 -0.07459580898284912 0.03909998759627342 -0.040565069764852524 -0.001508436631411314 0.05829529091715813 0.011178478598594666 -0.016598820686340332 0.015626411885023117 0.01756053976714611 -0.021465085446834564 -0.010882706381380558 -0.0018482665764167905 0.006626842077821493 0.01819205842912197 -0.006251513492316008 -0.013370675034821033 -0.022129714488983154 0.05432223156094551 7.191178156062961E-4 0.02202407643198967 -0.02762446738779545 0.01733262464404106 -0.058093175292015076 -0.04522427171468735 -0.03929891437292099 -0.029302997514605522 -0.013072974048554897 -0.011819335632026196 0.01863284222781658 -0.01058588270097971 0.03380952402949333 -0.016106825321912766 -0.020976457744836807 -0.05465712025761604 -0.03516412153840065 0.08167282491922379 0.0018894377863034606 -0.0011724949581548572 0.08629573881626129 -0.014320204965770245 0.03244183957576752 0.007433236576616764 0.013096681796014309 -0.0017347659450024366 -0.015741920098662376 -0.04218894988298416 0.05080677196383476 0.051508959382772446 0.029309019446372986 0.004197434522211552 -0.04898016154766083 -0.010165066458284855 -0.028586912900209427 -0.03234110400080681 0.014732678420841694 0.03696747124195099 0.05062013119459152 -0.0019248968455940485 -0.05281873047351837 -0.06965399533510208 -0.055666130036115646 0.03770306333899498 -0.006266501732170582 -0.01680494286119938 -0.0021135960705578327 0.019759131595492363 0.03861157223582268 -0.023546259850263596 -0.03146833926439285
each -0.048268530517816544 0.05759824439883232 0.21789401769638062 -0.1796611100435257 -0.3023369014263153 -0.34180834889411926 -0.11699487268924713 0.0189270731061697 -0.17851026356220245 0.13096147775650024 -0.20687809586524963 -0.0918060839176178 0.1290213018655777 -0.04115409776568413 -0.11922655254602432 0.05081697180867195 -0.35740411281585693 0.08713044226169586 0.05623004212975502 -0.10927481949329376 0.0433296337723732 -0.13054180145263672 0.32369935512542725 0.0012611320707947016 -0.08438156545162201 0.019801629707217216 0.37042999267578125 0.30809685587882996 -0.08866886794567108 -0.456281453371048 -0.044916704297065735 -0.17984755337238312 0.22062215209007263 -0.15755032002925873 -0.05039991810917854 -0.1100517213344574 -0.060928769409656525 0.03103986568748951 0.3532388210296631 -0.011494826525449753 -0.21936315298080444 -0.24751383066177368 0.06689947843551636 -0.24199141561985016 -0.09449358284473419 0.031940311193466187 0.05802750587463379 0.24303561449050903 -0.09928349405527115 -0.024567004293203354 -0.18669956922531128 -0.3599384129047394 -0.3594481348991394 -0.13662013411521912 -0.28999969363212585 -0.10904845595359802 -0.3033193051815033 0.15603037178516388 -0.08298677951097488 -0.22154247760772705 -0.19881831109523773 -0.17902569472789764 0.17336231470108032 0.19681261479854584 0.3279421627521515 -0.10827424377202988 0.0919872522354126 0.49463343620300293 0.07767289131879807 0.024877319112420082 -0.11633429676294327 -0.2910574674606323 -0.12766392529010773 -0.10818740725517273 0.07039624452590942 0.12075892090797424 0.21679888665676117 -0.11027630418539047 0.40094929933547974 -0.35182586312294006 -0.16828341782093048 0.1986207365989685 -0.16255250573158264 0.474174827337265 0.42743808031082153 0.19248497486114502 -0.21852649748325348 0.492400586605072 0.34279486536979675 -0.0820106565952301 0.06982085108757019 -0.10315991193056107 0.16557806730270386 0.12419622391462326 0.08266369253396988 0.32119765877723694 -0.06631927192211151 -0.14035774767398834 -0.36364850401878357 0.25268903374671936
as 0.08303212374448776 0.002556011313572526 -0.08658437430858612 0.13823017477989197 0.2001468688249588 -0.1300867199897766 0.3774397075176239 0.18531553447246552 0.012941926717758179 0.15414048731327057 0.1067894995212555 0.1532803326845169 -0.0016638603992760181 0.2841638922691345 0.12129276245832443 0.13746489584445953 -0.266947865486145 -0.3318895697593689 0.003958255518227816 -0.08580194413661957 0.22545288503170013 -0.11522622406482697 0.6619121432304382 -0.17845948040485382 0.13681812584400177 -0.14798836410045624 0.027835428714752197 -0.19561341404914856 -0.2749117612838745 -0.11100003123283386 0.02729698456823826 0.047984953969717026 0.0865568295121193 -0.07729246467351913 -0.44284114241600037 0.32350340485572815 0.008071538992226124 0.06783263385295868 0.150878444314003 -0.08368195593357086 -0.5537983775138855 -0.19313979148864746 -0.11568066477775574 0.16577936708927155 -0.27945736050605774 0.057507358491420746 -0.31581956148147583 -0.06599482893943787 -0.24852612614631653 0.1610737144947052 -0.1322321593761444 0.45896288752555847 -0.1039520800113678 0.030199414119124413 -0.03356528654694557 -0.16675545275211334 -0.048356033861637115 -0.1618822067975998 -0.07416876405477524 0.07387641817331314 0.22951821982860565 -0.2808838486671448 0.05794166028499603 0.33643606305122375 0.04580770060420036 0.0306587852537632 -0.08850902318954468 0.16122280061244965 -0.43973425030708313 0.13538676500320435 0.06356462091207504 -0.29292353987693787 -0.2063918262720108 -0.1777031421661377 0.1331966072320938 -0.11220654845237732 -0.35132747888565063 0.2413036972284317 -0.2195269763469696 -0.012910968624055386 0.050108350813388824 0.3258964419364929 -0.08647321909666061 -0.2828822135925293 -0.3606205880641937 -0.3666835129261017 0.1787886768579483 0.12873855233192444 -0.04218975827097893 0.4657227396965027 0.12108796089887619 -0.3932653069496155 0.32125160098075867 -0.054638057947158813 0.15668301284313202 -0.07682199776172638 -0.05565210431814194 -0.2723549008369446 -0.18355822563171387 -0.13130956888198853
at 0.03228512406349182 0.3633773624897003 0.13916411995887756 -0.18344667553901672 -0.07814162224531174 0.13696132600307465 0.010148811154067516 0.14942388236522675 -0.38421130180358887 0.2379974126815796 -0.07742581516504288 -0.13714423775672913 0.12424477934837341 -0.002470656530931592 0.013507784344255924 0.21651841700077057 -0.050325822085142136 0.0748000293970108 0.0656893327832222 -0.2250620275735855 -0.3734032213687897 0.13384376466274261 -0.07748455554246902 0.11835745722055435 -0.0017589678755030036 -0.04401647672057152 -0.09487786144018173 0.0276542529463768 -0.24505293369293213 -0.23634029924869537 0.17683161795139313 -0.08110374212265015 0.03889702633023262 0.0017380110220983624 0.014051144942641258 0.27650579810142517 0.4319878816604614 0.23333971202373505 0.2046404778957367 -0.4449383020401001 -0.13862618803977966 0.09922540187835693 -0.19177280366420746 0.45242688059806824 -0.4047653377056122 -0.1372663676738739 0.2930747866630554 -0.023415081202983856 -0.12867668271064758 -0.07262623310089111 -0.21232905983924866 -0.14249107241630554 -0.03732951730489731 -0.356085866689682 0.03578174486756325 -0.3979581892490387 0.2523803412914276 0.057589687407016754 -0.042340561747550964 -0.22237496078014374 -0.06932394951581955 -0.14339151978492737 0.0780257135629654 -0.004437230061739683 -0.4083990752696991 0.23198916018009186 0.1190570592880249 -0.011571806855499744 0.2835402488708496 -0.05524485930800438 0.16848766803741455 -0.03926318511366844 -0.08311254531145096 0.33325958251953125 0.08862235397100449 0.046218808740377426 0.22757749259471893 0.11587122082710266 0.15298210084438324 -0.2896568179130554 -0.22376585006713867 0.1913546472787857 -0.11770849674940109 -0.12488587200641632 -0.4243212044239044 0.18918322026729584 -0.5322277545928955 0.3048695921897888 0.1262415200471878 0.05821497365832329 0.08429356664419174 -0.39159807562828064 0.010260332375764847 -0.0378677062690258 -0.3505764305591583 0.4397372901439667 0.3625551760196686 0.16133852303028107 -0.19708187878131866 0.013927148655056953
left 0.12684254348278046 0.03287583217024803 -0.2598714232444763 -0.1280956119298935 0.23252594470977783 0.2081708163022995 0.08830730617046356 0.015122037380933762 -0.13972365856170654 -0.08517619222402573 0.08778710663318634 0.07126627117395401 -0.05031333118677139 -0.08119221776723862 -0.2501622140407562 0.05145645514130592 -0.08988187462091446 0.06629766523838043 0.07730226963758469 -0.28188714385032654 -0.035296592861413956 -0.14068067073822021 -0.01962815411388874 0.1612357348203659 -0.05083030089735985 -0.11621612310409546 0.23008574545383453 0.04519161209464073 -0.4944903254508972 0.1311272531747818 0.1442907303571701 -0.35557031631469727 -0.26143714785575867 -0.136207714676857 0.10172518342733383 -0.23543334007263184 0.10135278105735779 -0.1971336305141449 0.15464600920677185 -0.05585769563913345 -0.17386631667613983 -0.1510622203350067 -0.011960125528275967 -0.07109425216913223 0.08044715225696564 -0.13086873292922974 0.2963961064815521 0.09499598294496536 -0.010548209771513939 -2.855001948773861E-4 -0.0785648450255394 -0.22182942926883698 0.0966857448220253 -0.1854335069656372 -0.3499894440174103 0.2452525794506073 -0.09226181358098984 0.06789494305849075 -0.232020765542984 -0.1526932716369629 0.06772812455892563 -0.14628015458583832 -0.15390819311141968 -0.17407108843326569 0.17605751752853394 -0.06829556822776794 -0.0577772855758667 0.12599557638168335 -0.2729369103908539 -0.17367447912693024 0.020642085000872612 -0.014390010386705399 0.14307701587677002 0.05952947214245796 -0.1372622847557068 -0.14675356447696686 -0.11456397920846939 -0.09818916767835617 -0.12600314617156982 0.2522059381008148 0.15365159511566162 -0.11207637190818787 -0.11322098970413208 -0.2544460594654083 -0.2890166938304901 -0.021061327308416367 0.13255032896995544 -0.2633783519268036 0.05422651395201683 -0.21305397152900696 -0.13260464370250702 0.2707284092903137 -0.23739248514175415 -0.1825079470872879 -0.2528008222579956 0.11814053356647491 0.18183429539203644 0.05382411926984787 0.02050427906215191 0.1292363405227661
much 0.15585003793239594 0.40787267684936523 0.2710728049278259 0.21026422083377838 -0.1043422520160675 -0.014138837344944477 -0.001193434582091868 0.034671176224946976 0.26900142431259155 0.02363833226263523 -0.21476449072360992 -0.04287475347518921 -0.09818234294652939 0.09464745968580246 -0.28168773651123047 0.010828898288309574 -0.1652947962284088 0.30227530002593994 -0.10703940689563751 -0.24199090898036957 -0.0688885971903801 -0.10742934048175812 0.05809749662876129 0.49067121744155884 0.12008438259363174 -0.27323073148727417 0.1620054990053177 0.1630183458328247 -0.04097720980644226 -0.3855566680431366 -0.16806037724018097 0.07020444422960281 -0.15343715250492096 0.020432056859135628 0.054866570979356766 -0.5981594324111938 0.1906006634235382 -0.21764275431632996 -0.17660030722618103 -0.11321321874856949 0.11023484915494919 0.1596612185239792 0.405412882566452 -0.07159509509801865 0.14502419531345367 0.10115417838096619 -0.08823948353528976 -0.010808128863573074 0.7640573382377625 -0.14226414263248444 -0.3122527301311493 0.020734751597046852 0.15759523212909698 0.1509288102388382 0.289702832698822 0.44175469875335693 -0.007916850969195366 0.5173516273498535 -0.1882402002811432 0.3963266909122467 -0.10163556784391403 -0.35531431436538696 0.09263361245393753 -0.08923020958900452 0.09418293833732605 -0.0581529438495636 -0.22237028181552887 0.07650301605463028 0.09843495488166809 -0.17160628736019135 0.07213721424341202 -0.15700747072696686 -0.2959744334220886 -0.102423757314682 -0.1478826403617859 -0.26115450263023376 -0.034536220133304596 0.39234331250190735 -0.2086033970117569 -0.31474119424819946 -0.36304646730422974 -0.1571386158466339 -0.07698481529951096 -0.18850946426391602 0.5480292439460754 -0.15517620742321014 0.2393350452184677 -0.025515684857964516 0.03439091145992279 -0.17147047817707062 -0.07835354655981064 0.24051187932491302 -0.2796313464641571 -0.4493943750858307 -0.10330656915903091 -0.14486908912658691 -0.0702318549156189 -0.4684690535068512 0.09343516081571579 0.32345810532569885
be -0.3090968430042267 0.024355513975024223 -0.03812649846076965 0.22291290760040283 -0.13246822357177734 -0.254982054233551 0.050885159522295 0.2403491735458374 0.22554565966129303 -0.07111542671918869 0.10032983124256134 -0.02943084016442299 0.5248938798904419 0.20753057301044464 -0.2793438136577606 0.29103031754493713 -0.33154428005218506 0.0032975070644170046 -0.05820003151893616 0.28040289878845215 -0.08893190324306488 0.028597209602594376 -0.06274473667144775 0.0733061134815216 -0.1883147805929184 0.2150724232196808 0.015127028338611126 0.3578548729419708 -0.029162459075450897 -0.10455762594938278 0.001594026223756373 -0.23844803869724274 0.018771663308143616 -0.13907679915428162 0.0013740204740315676 0.06046612188220024 0.0935443639755249 0.18128827214241028 0.06388179212808609 -0.014090088196098804 -0.4572393298149109 0.12174520641565323 -0.22810178995132446 0.05514969676733017 -0.1387614756822586 0.06791908293962479 0.011669332161545753 0.4344576597213745 -0.179453045129776 -0.17953170835971832 0.03469365835189819 0.13473787903785706 0.05099079757928848 0.5569528937339783 0.31252768635749817 0.038724835962057114 0.2927299439907074 -0.14012694358825684 -0.11116186529397964 0.17656777799129486 -0.3141883909702301 0.0900840237736702 0.29211732745170593 -0.06145652011036873 0.11210762709379196 0.12604868412017822 0.06417454779148102 -0.12774977087974548 -0.25389453768730164 -0.013082819059491158 0.02851105108857155 0.04798666015267372 -0.08120319992303848 0.028608456254005432 -0.0021470263600349426 0.07421121746301651 -0.3190891146659851 0.03408239036798477 0.07217834889888763 -0.07107766717672348 0.32108068466186523 -0.3430403769016266 -0.029758693650364876 -0.16396372020244598 -0.26683762669563293 -0.1826353222131729 0.3077565133571625 -0.13683566451072693 -0.19814708828926086 0.016541486606001854 0.2514475882053375 0.17070023715496063 -0.12626288831233978 -0.23125913739204407 0.12780457735061646 -0.27876290678977966 0.1476278007030487 0.19089776277542114 -0.49392759799957275 0.19781550765037537
another 0.08807610720396042 -0.15277749300003052 0.014776951633393764 0.021658236160874367 -0.20830872654914856 -0.2865227162837982 -0.06836440414190292 -0.08295287936925888 -0.4752478301525116 -0.06793814152479172 8.16278625279665E-4 0.1780233532190323 0.1272415816783905 0.1635100096464157 0.07810699194669724 -0.15054495632648468 -0.2246517688035965 0.15483281016349792 -0.37250494956970215 0.15584461390972137 0.11906711012125015 0.045655541121959686 0.10978444665670395 -0.08718796074390411 0.3427860736846924 -0.02599797211587429 0.2722175717353821 0.0786677896976471 -0.0012923063477501273 0.054530445486307144 -0.3433297276496887 -0.19093669950962067 0.06305819749832153 0.3095707893371582 -0.12287942320108414 -0.21013112366199493 -0.15620674192905426 0.004394052550196648 0.14412163197994232 0.10594052076339722 -0.014360867440700531 -0.21376709640026093 -0.11562896519899368 -0.1410287618637085 0.26583436131477356 -0.21716122329235077 -6.796052330173552E-4 0.5705546140670776 0.3299899399280548 -0.04223637655377388 0.03936629369854927 -0.14558827877044678 -0.41454586386680603 -0.12865066528320312 0.07348183542490005 -0.038795437663793564 -0.06351716816425323 -0.262810081243515 -0.16113582253456116 -0.09296096116304398 -0.25186553597450256 0.17458485066890717 -0.12475582212209702 0.07549484074115753 0.024637706577777863 0.08436734974384308 -0.02038232795894146 -0.10331401973962784 -0.03732140362262726 0.18229076266288757 0.03583867847919464 0.23607578873634338 0.320226788520813 0.3088551163673401 -0.34544748067855835 -0.08166780322790146 -0.028231700882315636 0.016664590686559677 0.07002603262662888 0.06174720823764801 0.21050500869750977 -0.15232208371162415 -0.141514390707016 -0.08020065724849701 -0.2548707127571106 -0.19462965428829193 -0.1442556083202362 -0.00820392370223999 0.028463976457715034 -0.26077908277511597 0.26040104031562805 -0.0278844702988863 -0.08466363698244095 -0.11820343136787415 0.23936283588409424 -0.01535358652472496 -0.23572134971618652 0.22165115177631378 0.2954748868942261 0.3060668110847473
two 0.2736915051937103 0.2433796525001526 -0.051010485738515854 -0.26527339220046997 -0.2534688115119934 -0.025947486981749535 -0.042319685220718384 0.057955238968133926 -0.040045469999313354 0.22532479465007782 0.31845933198928833 0.1388048380613327 0.08965298533439636 0.1322116106748581 -0.19163577258586884 -0.3516390323638916 -0.15084634721279144 0.05973175913095474 -0.10420360416173935 -0.191654771566391 0.4065919518470764 -0.3159980773925781 0.21231584250926971 -0.1397884339094162 0.03981774300336838 -0.1821855753660202 0.5651124119758606 -0.37077397108078003 -0.36768072843551636 -0.08976226300001144 -0.15144921839237213 -0.30398547649383545 -0.2571488320827484 -0.2740685045719147 0.07915865629911423 -0.07717901468276978 -0.30738115310668945 -0.12078846991062164 0.5455582737922668 -0.22040243446826935 -0.35530632734298706 -0.3434845209121704 -0.16843517124652863 0.17061540484428406 0.09091070294380188 -0.017935991287231445 0.4194249212741852 0.32918649911880493 0.05704499036073685 -0.009369852021336555 0.24317549169063568 -0.3708147704601288 -0.1589871048927307 -0.3661390542984009 -0.2031581550836563 0.27991002798080444 0.013605708256363869 -0.12761808931827545 -0.04743291437625885 -0.6449202299118042 -0.1477939337491989 -0.049961596727371216 0.08516009151935577 0.010389490984380245 -0.012678835541009903 -0.14877666532993317 0.17131926119327545 0.2167268991470337 -0.2953374683856964 -0.10513313114643097 -0.36823198199272156 -0.29521360993385315 0.30317267775535583 -0.15075445175170898 0.18916235864162445 -0.017463255673646927 -0.1421976536512375 -0.11391571164131165 -0.002384955296292901 0.2807653248310089 -0.17659294605255127 -0.28085190057754517 -0.05880791321396828 -0.3259500563144684 -0.31842952966690063 0.17340484261512756 0.12659884989261627 -0.10803011059761047 0.07769414037466049 -0.5013625621795654 0.0258978009223938 0.2611694633960724 -0.20267252624034882 0.02947695180773735 -0.06036984175443649 0.5047962665557861 -0.12111088633537292 0.19188092648983002 -0.1218486949801445 0.2733297348022461
long 0.20973634719848633 0.09420595318078995 0.5969357490539551 0.41559523344039917 -0.5817742943763733 0.3450637459754944 -0.011797478422522545 0.20617999136447906 0.32174110412597656 0.056736186146736145 0.16850939393043518 -0.12795276939868927 0.1538897156715393 0.3036637604236603 -0.30959370732307434 -0.34178853034973145 0.27169108390808105 0.08692104369401932 -0.1191205158829689 0.10340201109647751 -0.04413925111293793 0.1477786898612976 0.21019145846366882 -0.10458465665578842 0.4409692883491516 -0.6602741479873657 0.020063964650034904 0.01042456179857254 0.10433203727006912 0.025601690635085106 -0.06657847762107849 -0.2894865870475769 0.14895860850811005 -0.24043381214141846 -0.07352987676858902 -0.1543610841035843 0.27020978927612305 0.13667702674865723 -0.48648127913475037 -0.43566715717315674 0.02223219908773899 -0.224570170044899 -0.11781999468803406 -0.44550812244415283 -0.2121991515159607 -0.33486348390579224 -0.08554436266422272 -0.06943488121032715 0.4575805068016052 0.02799352817237377 0.24285928905010223 0.1384035348892212 0.05143970996141434 -0.22497491538524628 0.5203993916511536 -0.08017315715551376 0.46208900213241577 -0.20594573020935059 -0.3688545227050781 0.02104390598833561 -0.1909194439649582 -0.12189032882452011 0.16307014226913452 0.20891080796718597 0.1908504217863083 -0.24079547822475433 0.13406020402908325 -0.10868427902460098 -0.0763428583741188 0.003303331322968006 0.44588300585746765 -0.2681923508644104 0.16423380374908447 0.18737010657787323 -0.08569428324699402 0.08628299832344055 -0.09302247315645218 0.40823256969451904 -0.24562092125415802 -0.15659917891025543 0.19364339113235474 -0.18947002291679382 0.5477908849716187 0.15767309069633484 -0.23758479952812195 -0.04278081655502319 0.45670610666275024 0.11163854598999023 -0.04333895817399025 -0.49530577659606934 0.4075218737125397 0.07108788937330246 -0.2597898244857788 -0.44729313254356384 0.17469507455825806 0.09303896874189377 0.004542320501059294 -0.1531517505645752 0.47251105308532715 0.7260540723800659
into 0.040926702320575714 0.10646956413984299 0.14740325510501862 -0.04617360606789589 -0.11781970411539078 0.26519662141799927 -0.034897349774837494 -0.11891075223684311 -0.05845244228839874 0.06881509721279144 -0.1327212005853653 -0.25542277097702026 0.16202016174793243 0.07969121634960175 0.0886787474155426 0.09861437231302261 -0.07896700501441956 0.10633682459592819 -0.18938139081001282 0.03471243754029274 -0.003350984537974 0.046732403337955475 0.3403047025203705 -0.07756112515926361 0.10415904223918915 0.011646668426692486 0.008134499192237854 -0.1377597600221634 0.012767389416694641 0.1209838017821312 -0.22026163339614868 0.19408969581127167 -0.0194612517952919 -0.02926999144256115 -0.11207371950149536 -0.04617784172296524 0.024438822641968727 -0.08307912945747375 0.10872464627027512 0.17708806693553925 0.09875339269638062 -0.06864916533231735 -0.19734802842140198 -0.06363449990749359 -0.3249169588088989 -0.11235350370407104 -0.008088672533631325 0.13663282990455627 -0.0899813175201416 0.041792046278715134 0.09455210715532303 0.16175518929958344 0.05491959676146507 -0.0012831003405153751 -0.017713209614157677 -0.06824024021625519 -0.13797369599342346 -0.21730497479438782 0.018076900392770767 -0.19187216460704803 0.10761985927820206 0.06790535151958466 0.010035636834800243 0.011327468790113926 0.05741111934185028 0.06207188963890076 -0.04811350628733635 -0.200281023979187 -0.0028461969923228025 0.008949455805122852 0.08956438302993774 0.013344362378120422 -0.08467608690261841 0.222711443901062 0.015019631013274193 -0.11144942045211792 0.3407885730266571 -0.311391144990921 0.23912394046783447 0.023472731932997704 0.20450228452682495 -0.10104762017726898 -0.04085274413228035 0.10606284439563751 -0.1448623687028885 0.04555290564894676 -0.20050060749053955 -0.12947958707809448 -0.11112841218709946 -0.04653238132596016 0.3378656506538391 -0.24006526172161102 -0.2232024371623993 0.2231481671333313 0.025050481781363487 0.05543454736471176 0.08486920595169067 -0.07306291162967682 0.21934916079044342 -0.006004516500979662
how 0.12918032705783844 0.04544125124812126 0.21753360331058502 0.16285167634487152 0.023009255528450012 -0.25557637214660645 -0.04277427867054939 -0.17120584845542908 0.0065338872373104095 -0.12571290135383606 -0.10059670358896255 0.12415464222431183 0.2383488416671753 0.1377924531698227 0.0886843204498291 0.13738064467906952 -0.2533801198005676 -0.19250209629535675 -0.12252393364906311 -0.22528241574764252 0.2271418571472168 -0.017221149057149887 0.2818761467933655 -0.30607590079307556 0.2459418922662735 0.024499448016285896 -0.12192000448703766 0.01852789707481861 -0.09901793301105499 -0.4228801131248474 -0.27804842591285706 0.27306076884269714 0.2134692370891571 0.36181098222732544 -0.04589216411113739 -0.04138857126235962 -0.17249174416065216 -0.16330863535404205 0.32740628719329834 -0.054694294929504395 -0.36717504262924194 0.10141309350728989 0.20673637092113495 -0.026475701481103897 -0.09044629335403442 -0.23646408319473267 -0.5233051180839539 -0.10246686637401581 -0.2397177517414093 0.4767691195011139 -0.1220603659749031 0.47673627734184265 -0.09757202118635178 0.06702536344528198 0.08021777123212814 0.1240517720580101 -0.2075941562652588 0.30479928851127625 0.08895579725503922 -0.3002002537250519 0.3383668065071106 -0.45466944575309753 0.14906248450279236 0.21949483454227448 0.1484195441007614 -0.08091656118631363 -0.2938825190067291 0.1061205193400383 0.09760165959596634 0.04880629852414131 0.17011666297912598 -0.20916198194026947 0.06553816050291061 -0.35414841771125793 -0.0568280853331089 -0.4328121244907379 0.16934210062026978 -0.1414770931005478 -0.3873162269592285 -0.06946663558483124 0.11316478997468948 0.31158125400543213 0.1930982768535614 0.12347768992185593 0.14169196784496307 -0.28675615787506104 0.12521758675575256 0.01582815684378147 -0.2234606295824051 0.2109566181898117 0.22344203293323517 -0.13716807961463928 0.40250346064567566 0.16540026664733887 0.04697871208190918 -0.03878981992602348 -0.05396502465009689 0.055380579084157944 0.11694624274969101 -0.31717541813850403
see -0.10386773198843002 0.0032004150561988354 0.18118727207183838 0.19421103596687317 0.20087610185146332 0.009377405047416687 0.05202419310808182 -0.0740911141037941 0.03983329236507416 -0.08513399213552475 0.2699195444583893 -0.07881388068199158 0.07538168132305145 0.048808444291353226 -0.08137017488479614 0.07750502228736877 -0.01721731759607792 0.00269165076315403 -0.18997517228126526 0.01731482706964016 0.02621293067932129 0.14791275560855865 0.20549657940864563 -0.03479071334004402 -0.03832121938467026 0.14614278078079224 -0.08490072935819626 0.10567464679479599 0.0071903434582054615 0.1382853388786316 -0.11996884644031525 0.20907479524612427 -0.211937814950943 0.1881173700094223 -0.13687798380851746 -0.3616422712802887 0.18296243250370026 0.0012966752983629704 -0.34643125534057617 0.08920183777809143 0.03222748637199402 0.45478832721710205 0.09941157698631287 0.16491763293743134 -0.10516349971294403 -0.020444031804800034 0.34356531500816345 0.27212443947792053 -0.3492361903190613 0.05816877260804176 0.09519899636507034 -0.1222032681107521 -2.013204211834818E-4 0.4564710557460785 -0.024179643020033836 0.19504933059215546 -0.07822664827108383 -0.35153743624687195 0.11386993527412415 -0.014500073157250881 -0.06029535084962845 -0.0205403883010149 -0.0699291080236435 0.06126505136489868 0.04361328110098839 0.10175470262765884 0.09651122242212296 -0.13788196444511414 0.12936191260814667 0.15740340948104858 0.1829579770565033 -0.06395626813173294 -0.024950582534074783 -0.0679122731089592 -0.13907362520694733 -0.022027265280485153 0.27595773339271545 -0.1605372279882431 0.24700596928596497 0.2368614375591278 0.04267378896474838 0.07304268330335617 -0.0342855229973793 -0.10597047954797745 0.1592044234275818 -0.26775607466697693 0.01450102124363184 -0.369408518075943 -0.1492602676153183 0.15933600068092346 0.08992656320333481 0.11793774366378784 -0.10262154042720795 -0.04709643870592117 0.25798851251602173 -0.05293411388993263 0.12594783306121826 -0.07476477324962616 -0.13184009492397308 0.14964668452739716
same 0.12474778294563293 0.12432869523763657 0.34520259499549866 0.15141785144805908 0.26311084628105164 0.4596722722053528 0.025906939059495926 -0.1974806785583496 0.3058609962463379 0.22554802894592285 0.06584396958351135 -0.16403257846832275 0.03130202740430832 -9.783426066860557E-4 0.1447848081588745 -0.10060742497444153 -0.06173913553357124 0.3087606430053711 0.24995893239974976 -0.42957207560539246 -0.23478545248508453 0.09220890700817108 -0.008069022558629513 -0.04398800805211067 -0.12511833012104034 0.29691582918167114 -0.10055648535490036 0.20706379413604736 -0.4021221995353699 -0.06844336539506912 0.0033776958007365465 -0.33631303906440735 -0.28550419211387634 -0.30459025502204895 -0.16580256819725037 0.15850205719470978 -0.05743534117937088 0.21144719421863556 -3.3891480416059494E-4 0.29067671298980713 -0.1857442557811737 0.19100673496723175 -0.2602997422218323 0.10924534499645233 -0.018042046576738358 -0.2975853681564331 -0.011736276559531689 -0.0963696837425232 0.3231900930404663 -0.30402451753616333 -0.22329667210578918 0.00265036360360682 -0.24123524129390717 -0.17934487760066986 -0.02154572308063507 -0.12801960110664368 -0.26023316383361816 -0.3958812654018402 -0.1461757868528366 -0.05462048947811127 -0.13488109409809113 -0.11273718625307083 -0.016810806468129158 -0.1417771726846695 -0.15500949323177338 -0.21348848938941956 0.07427089661359787 0.0010291730286553502 -0.08534003794193268 0.41862213611602783 -0.19759732484817505 0.039279449731111526 0.22844241559505463 0.05265367403626442 -0.33692196011543274 -0.5240967869758606 -0.021434471011161804 0.3307395279407501 0.18290190398693085 -0.2850569486618042 -0.04583826661109924 -0.07671475410461426 0.06974504888057709 -0.08408798277378082 -0.6591817736625671 0.00830058939754963 -0.12467928975820541 0.4040164649486542 0.0029986940789967775 -0.18148139119148254 -0.18317392468452454 0.014218956232070923 -0.15203219652175903 -0.004192791413515806 0.16802909970283508 0.11647050827741623 0.24764108657836914 0.3884648382663727 -0.3086015582084656 0.2920072078704834
found 0.33621007204055786 -0.04543064907193184 -0.2165185958147049 0.014444638043642044 0.21698962152004242 0.013179881498217583 0.10722239315509796 0.03950660675764084 -0.04105931520462036 -0.057923633605241776 -0.01114460825920105 0.13218219578266144 0.07291576266288757 -0.10112673789262772 -0.24320366978645325 0.011017132550477982 0.0843990370631218 0.20577630400657654 -0.03826677426695824 -0.013409432955086231 -0.004891420714557171 -0.017830315977334976 0.03185165673494339 -0.09004291892051697 -0.14134566485881805 -0.4361945688724518 0.06343143433332443 0.11298801749944687 -0.2565872371196747 0.1308220773935318 0.21031032502651215 -0.2259107232093811 -0.021873148158192635 -0.11998141556978226 0.09992275387048721 -0.1315455138683319 0.27703791856765747 0.07911557704210281 0.006695173680782318 0.03929861634969711 -0.1842789351940155 -0.032875146716833115 -0.023781942203640938 -0.19708791375160217 -0.21459966897964478 -0.09553201496601105 0.1062878742814064 0.33948418498039246 -0.04309029132127762 -0.02746543660759926 -0.17753617465496063 -0.2690482437610626 0.019722748547792435 -0.032325077801942825 -0.2999361753463745 0.08554121106863022 -0.08801665902137756 0.009808624163269997 -0.10221415013074875 -0.19890817999839783 -0.01641467586159706 0.005796424113214016 -0.179299458861351 -0.2276032269001007 0.3514260947704315 -0.03268541395664215 -0.028354251757264137 0.06529268622398376 0.015573402866721153 -0.08363529294729233 0.17874497175216675 0.191319540143013 0.11318938434123993 0.1940804272890091 -0.2190023958683014 0.06244635209441185 -0.18438826501369476 -0.018111519515514374 -0.10798218101263046 0.21995076537132263 0.11628378182649612 0.3075374662876129 -0.22646096348762512 0.03458167985081673 -0.34900954365730286 -0.022744925692677498 0.061725322157144547 -0.1948138326406479 -0.07757805287837982 -0.19838152825832367 -0.020135752856731415 -0.09348972141742706 -0.19229833781719208 -0.36326929926872253 -0.011406660079956055 -0.04741932451725006 0.13606992363929749 -0.07117079198360443 0.018714386969804764 0.0747910737991333
are -0.11408326774835587 -0.18434779345989227 -0.051570069044828415 0.24902348220348358 -0.12484686821699142 -0.14814981818199158 0.07208701223134995 0.45947587490081787 0.061922017484903336 0.006407885812222958 0.5748459100723267 -0.6846531629562378 0.05337992310523987 -0.05586770921945572 -0.017510363832116127 0.36909228563308716 0.014667908661067486 -0.04669777676463127 0.06752375513315201 -0.15766623616218567 0.03560470789670944 -0.2175569087266922 0.17835751175880432 -0.24350100755691528 0.11834684014320374 -0.014870899729430676 -0.018354538828134537 0.4876755177974701 0.06398790329694748 -0.24231265485286713 0.5307835936546326 0.13581252098083496 -0.4142126441001892 0.2220151722431183 0.030002854764461517 0.060791339725255966 0.08164408802986145 -0.13710352778434753 0.14175796508789062 0.21695518493652344 -0.25988441705703735 -0.5657879114151001 -0.008749224245548248 -0.04568716511130333 -0.007453956641256809 3.947374934796244E-4 0.18091420829296112 0.05942694842815399 -0.032891564071178436 0.2749413251876831 -0.18029913306236267 0.17709217965602875 -0.1587599217891693 0.007647696416825056 0.22691471874713898 0.18444688618183136 -0.542687177658081 0.18109780550003052 0.24905748665332794 0.3298039436340332 -0.3318421542644501 0.06190216913819313 -0.05956072732806206 -0.15028353035449982 -0.0975816547870636 -0.08280649036169052 0.3013581931591034 0.4177348017692566 -0.35406628251075745 0.052247967571020126 -0.011599201709032059 -0.01678754948079586 -0.03759929910302162 -0.1595967710018158 0.38595321774482727 -0.05636366084218025 -0.06717287003993988 -0.49731358885765076 -0.001100178575143218 0.17249330878257751 -0.27524417638778687 -0.13695991039276123 -0.4397509694099426 0.5117291808128357 0.4258865416049957 -0.11113885045051575 -0.079798124730587 0.2778179347515106 -0.10230980068445206 0.05176236480474472 -0.22276103496551514 0.3750421702861786 1.7546003800816834E-4 -0.22151412069797516 -0.012074276804924011 -0.02726934291422367 -0.09671980142593384 -0.20457355678081512 -0.430149108171463 0.03297645226120949
does 0.37955746054649353 -0.07546442002058029 -0.09127833694219589 -0.005025514867156744 -0.0010166261345148087 -0.20219460129737854 0.20668497681617737 0.1846177875995636 0.1620350480079651 -0.06174986809492111 -0.1914357841014862 0.23778142035007477 0.13494504988193512 0.2747921347618103 0.044069044291973114 0.051605526357889175 0.07295672595500946 0.2940566837787628 0.14873911440372467 -0.060221049934625626 -0.36172741651535034 -0.2522432804107666 -0.35588884353637695 0.2886854410171509 0.28690996766090393 -0.35980236530303955 -0.05633748322725296 -0.2723879814147949 -0.662086009979248 0.3343893885612488 -0.03233670815825462 -0.10078418999910355 0.07890021800994873 -0.1905394047498703 -0.09048276394605637 0.08119165152311325 -0.3788453936576843 0.2914871871471405 -0.01563405990600586 0.03155506029725075 0.2278636395931244 0.1109115332365036 0.23339007794857025 -0.1031358391046524 -0.26122456789016724 -0.09235846996307373 -0.028467245399951935 -0.09179843962192535 -0.09094604104757309 0.2422853261232376 0.16213157773017883 -0.25842469930648804 0.060310639441013336 -0.2096090167760849 0.37575751543045044 -0.09217514842748642 0.22927503287792206 -0.08896566927433014 0.07020353525876999 0.08431733399629593 0.20616768300533295 -0.12690109014511108 0.19085964560508728 -0.05702132359147072 -0.6026241183280945 0.47136667370796204 -0.23461054265499115 0.08085932582616806 -0.041424382477998734 -0.020570924505591393 -0.36894360184669495 0.16474652290344238 -0.14918652176856995 0.08662916719913483 0.050648290663957596 0.14523598551750183 0.33615872263908386 -0.067100390791893 -0.05824475362896919 0.10623877495527267 0.37624654173851013 0.12013835459947586 -0.1559450328350067 0.3226498067378998 0.6229335069656372 -0.37644851207733154 -0.3545718193054199 -0.1703081578016281 -0.24415284395217896 0.18034665286540985 0.1674315482378006 -0.42238849401474 -0.24177174270153046 -0.14663800597190857 0.1479901522397995 0.058789320290088654 0.3332004249095917 -0.20462459325790405 -0.04124067723751068 -0.006335167214274406
by 0.20099510252475739 0.1692180335521698 0.14919878542423248 0.005551316309720278 -0.21700730919837952 0.11570100486278534 0.08544939011335373 0.14542758464813232 -0.09574194997549057 0.04553520679473877 0.11449769884347916 -0.06007181480526924 0.03536319360136986 0.020485708490014076 -0.004116135649383068 -0.00426702992990613 0.07996328920125961 0.012652743607759476 -0.2623532712459564 -0.07732164859771729 0.18725524842739105 0.07835549116134644 0.25751158595085144 -0.06796511262655258 0.14539992809295654 0.07230931520462036 0.15536727011203766 -0.0580863393843174 -0.045143745839595795 0.11769933998584747 0.08171602338552475 -0.058130934834480286 -0.20004874467849731 0.07278250902891159 -0.08336236327886581 0.06775310635566711 -0.01419086940586567 0.015634410083293915 0.2305898368358612 0.0402199886739254 -0.07326041162014008 -0.11578666418790817 -0.19495639204978943 0.11476665735244751 0.04498971626162529 -0.05800069123506546 0.17908142507076263 0.08859027922153473 -0.07726158201694489 0.022997284308075905 0.3303851783275604 0.036989666521549225 -0.10676564276218414 -0.10298579186201096 -0.14564375579357147 0.016387419775128365 -0.1110539510846138 -0.30337902903556824 -0.21001802384853363 -0.20921196043491364 -0.16789676249027252 0.007279624231159687 1.8896869732998312E-4 -0.17571690678596497 0.09582779556512833 0.15619464218616486 0.037162624299526215 -0.08135362714529037 -0.16903246939182281 -4.7134162741713226E-5 0.17098157107830048 0.01854947954416275 0.20623454451560974 0.07070422172546387 -0.001080074580386281 0.003941461443901062 0.07117793709039688 -0.2557266354560852 0.040940843522548676 0.0982406735420227 0.27498525381088257 -0.09649326652288437 0.014201200567185879 -0.08475048094987869 -0.18688389658927917 -0.0660477951169014 -0.02816983312368393 -2.857451545423828E-5 -0.07772012054920197 -0.13881637156009674 0.21195459365844727 0.027312831953167915 -0.13637970387935638 0.14308764040470123 -0.05037291720509529 0.10188069939613342 0.07300082594156265 0.07468947768211365 0.07078638672828674 0.1191813200712204
national -0.05066452547907829 0.06690999120473862 0.1699647754430771 0.020546918734908104 -0.03198879957199097 -0.009270524606108665 -0.020717835053801537 -0.09011337906122208 0.04736994206905365 0.11012865602970123 0.06456390023231506 -0.08011787384748459 -0.023450547829270363 -0.03384554386138916 0.021079136058688164 -0.005448438692837954 -0.018854191526770592 0.08288926631212234 0.07240398228168488 -0.04073326289653778 -0.03383013978600502 0.004828791134059429 0.0461689792573452 -0.035247284919023514 0.08123985677957535 -0.009273963049054146 -0.0051045604050159454 -0.028990954160690308 -0.09274116158485413 0.02137024514377117 0.031175248324871063 -0.03836393728852272 0.1064678356051445 -0.09035909175872803 0.02203298732638359 0.11142803728580475 -0.0504949688911438 0.012061459943652153 0.017637118697166443 0.023769279941916466 -0.015223625116050243 -0.09337887912988663 -0.00602812459692359 -0.03153812885284424 -0.013579530641436577 -0.07001157104969025 -0.03459292650222778 0.0038211848586797714 0.1236194372177124 -0.05230018496513367 -0.017367903143167496 0.09613709151744843 0.08033574372529984 -0.07924807071685791 -0.05829143896698952 -0.06898224353790283 0.027019446715712547 -0.07373717427253723 -0.024997921660542488 0.057918328791856766 -0.03220202773809433 0.09997402876615524 -0.026507016271352768 0.05893837288022041 -0.04970966652035713 -0.05696656554937363 0.09397529810667038 -0.001842372352257371 -0.053072262555360794 0.09190898388624191 0.00889787171036005 0.06450255215167999 -0.06376546621322632 0.08826237171888351 -0.036538418382406235 -0.06380734592676163 -0.08104519546031952 0.07574968039989471 0.07001365721225739 0.04992939531803131 0.10339070111513138 -0.034774936735630035 0.021271776407957077 -0.022804144769906998 -0.15140311419963837 0.01301132794469595 0.08532566577196121 0.10708077996969223 0.04350888729095459 -0.051851723343133926 -0.10546375811100006 -0.05314179137349129 0.05152320861816406 -0.10642649978399277 -0.07365015894174576 -0.008364620618522167 0.0954236164689064 0.04781514033675194 -0.03540073707699776 -0.023665787652134895
where -0.1978636234998703 -0.0027115349657833576 0.2334320843219757 -0.04939624294638634 -0.10133825242519379 0.051834337413311005 -0.36989903450012207 -0.7217714190483093 -0.35508233308792114 0.2914057672023773 0.16225223243236542 0.34962382912635803 0.48846927285194397 0.10205114632844925 -0.04811776801943779 -0.2588784992694855 4.8571155639365315E-4 0.4712962508201599 0.07473111152648926 0.17895545065402985 0.234268918633461 0.3471616506576538 -0.015229785814881325 -0.20044997334480286 0.01087351143360138 -0.030122170224785805 -0.2888321578502655 -0.19748137891292572 0.39708346128463745 -0.060271818190813065 -0.16342204809188843 0.28402647376060486 -0.04006326571106911 -0.14069895446300507 0.1680068075656891 0.14580276608467102 0.06273184716701508 0.023358838632702827 0.10300638526678085 -0.060958314687013626 -0.27856531739234924 -0.33206191658973694 0.07191278785467148 0.21268236637115479 -0.07007171213626862 -0.043847016990184784 0.03444584086537361 -0.14989453554153442 -0.0020378350745886564 0.02413647621870041 -0.1094048023223877 0.43465524911880493 -0.11891993135213852 0.18094025552272797 0.0014657790306955576 0.06805122643709183 -0.27263644337654114 -0.024645615369081497 0.09253652393817902 0.0382375568151474 -0.101813405752182 -0.10088176280260086 0.2821226119995117 -0.08525915443897247 -0.3917883336544037 -0.054581332951784134 0.1660359501838684 -0.13845714926719666 -0.10115253925323486 0.1255415976047516 0.07127732038497925 -0.2012193202972412 0.14750777184963226 -0.1270594447851181 0.04343172535300255 -0.36435431241989136 -0.20959092676639557 -0.33642303943634033 0.018804313614964485 0.1624699980020523 -0.18194568157196045 0.33211416006088257 0.2560805678367615 0.4418337643146515 -0.11319468170404434 -0.04399995133280754 -0.18216465413570404 0.16532695293426514 -0.13526298105716705 0.09024488180875778 0.376339316368103 -0.032816071063280106 0.12301008403301239 0.24142986536026 0.11815119534730911 0.155180886387825 0.1819169819355011 0.03835277259349823 0.33653724193573 -0.07767040282487869
after 0.16780395805835724 0.24396578967571259 0.08382562547922134 -0.14846456050872803 -0.24674664437770844 0.1314995437860489 -0.13073578476905823 -0.11653861403465271 -0.3517474830150604 0.3446061611175537 0.11494915932416916 -0.23779691755771637 0.1783992201089859 0.12316708266735077 -0.011087298393249512 0.05878376588225365 0.20997998118400574 0.21864064037799835 -0.0309144239872694 -0.1262470781803131 0.10723358392715454 0.05925877392292023 0.014149867929518223 -0.23616164922714233 -0.014337420463562012 0.1629566252231598 0.10530898720026016 0.12016335874795914 -0.31072545051574707 0.1878182590007782 -0.01650416851043701 -0.03147784620523453 0.110743947327137 0.039809294044971466 0.0880131796002388 -0.05527593940496445 0.2040255218744278 -0.05239231511950493 0.26762712001800537 -0.1886022686958313 -0.11562840640544891 0.0414525642991066 -0.11859618872404099 0.25931814312934875 -0.18317580223083496 -0.18278297781944275 0.509013295173645 0.05234883353114128 -0.2316458523273468 0.07628495246171951 0.08058653771877289 -0.03549482673406601 0.20502294600009918 -0.23012201488018036 0.052340105175971985 0.03132907301187515 -0.29760855436325073 0.041411880403757095 -0.047351375222206116 -0.02296307124197483 -0.0927499383687973 -0.0022097525652498007 0.08857166767120361 -0.03688632696866989 -0.28566670417785645 0.18069422245025635 0.10108127444982529 -0.3002014458179474 0.12247253954410553 0.11649381369352341 0.23933088779449463 -0.1417091339826584 0.07230393588542938 0.33096930384635925 0.009591497480869293 -0.18199892342090607 0.09071039408445358 -0.3329802453517914 0.06330365687608719 -0.04194265231490135 0.06654107570648193 -0.2481600046157837 0.11932288110256195 -0.015585636720061302 -0.3498540222644806 0.11717728525400162 -0.27366092801094055 0.009535609744489193 -0.08467115461826324 -0.007820691913366318 -0.13654077053070068 -0.0036932078655809164 -0.05327143892645836 -0.0022121299989521503 -0.15186455845832825 0.21947821974754333 0.002839517081156373 0.194085493683815 0.12038665264844894 -0.1211695745587349
so 0.09823485463857651 0.30730220675468445 -0.08564606308937073 -0.2478330135345459 0.2646845281124115 -0.2027006894350052 0.2227056324481964 0.1900068074464798 -0.35840898752212524 0.027031362056732178 -0.014711949974298477 0.05473756417632103 -0.08510639518499374 0.04316684231162071 -0.0551648773252964 0.0018305776175111532 0.10184115916490555 -0.18740375339984894 0.1786116659641266 -0.0433570072054863 0.15290533006191254 0.05939001962542534 0.30758577585220337 0.0026903680991381407 0.03251176327466965 -0.08273384720087051 -0.0033838339149951935 0.13608045876026154 -0.1055159717798233 0.10515960305929184 0.054250117391347885 -0.172132670879364 -0.07040463387966156 0.22076548635959625 -5.2992782002547756E-5 -0.2729663848876953 -0.057108111679553986 -0.13552705943584442 0.04690122976899147 -0.19142240285873413 -0.1204134076833725 -0.18234413862228394 0.10495251417160034 0.1449611485004425 0.001369048492051661 0.028740663081407547 0.017794504761695862 -0.05101447552442551 -0.29538267850875854 0.1741276979446411 0.08235389739274979 0.04174437373876572 -0.005698074121028185 0.20196864008903503 -0.35627636313438416 0.15577125549316406 -0.1887761354446411 0.0385245680809021 0.093388132750988 0.06500992178916931 0.35964107513427734 -0.199788898229599 -0.058889105916023254 0.2013326734304428 -0.24059021472930908 -0.003078763373196125 -0.04166068509221077 -0.009805632755160332 -0.11551428586244583 0.1686563938856125 -0.05965421721339226 -0.27052608132362366 0.2554847002029419 -0.26649799942970276 0.03859254717826843 -0.02967718616127968 -0.02072298340499401 0.030252281576395035 -0.14982058107852936 -0.0045905644074082375 -0.05649362504482269 -0.0020248338114470243 0.25276827812194824 -0.041969869285821915 0.17471332848072052 0.11033906787633896 0.3561684489250183 -0.22511251270771027 0.01525487657636404 0.009449644014239311 0.18866907060146332 0.1469241827726364 0.14698220789432526 -0.03459705412387848 0.016840197145938873 -0.05639053136110306 0.07337182760238647 0.02946394309401512 -0.09492353349924088 -0.1940293312072754
a -0.17771141231060028 -0.10599863529205322 -0.07159245759248734 -0.00970286875963211 -0.2156158834695816 -0.21425692737102509 -0.04527432471513748 0.10534562170505524 -0.3662000000476837 -0.19619052112102509 -0.2700195610523224 -0.30701643228530884 -0.008568511344492435 0.41807910799980164 0.10008619725704193 0.06448888033628464 0.058021675795316696 0.05599776655435562 -0.0553438737988472 -0.09815823286771774 -0.17470240592956543 0.32984891533851624 0.08109847456216812 -0.1334117203950882 0.3943096995353699 -0.06667178124189377 0.40910276770591736 -0.01876404508948326 -0.20762845873832703 0.07639295607805252 -0.3483891487121582 0.26701268553733826 0.060429852455854416 0.15159371495246887 -0.09079871326684952 -0.16757027804851532 -0.40191787481307983 0.23329700529575348 0.24832648038864136 0.11613848805427551 -0.09596037119626999 -0.29049018025398254 -0.2288629412651062 -0.438101589679718 0.08834877610206604 -0.4501080811023712 0.0031579311471432447 0.19423581659793854 0.1409173160791397 0.27412497997283936 -0.017703425139188766 0.06391119956970215 -0.2814485728740692 -0.01342944148927927 -0.13189858198165894 -0.4262867867946625 1.8664072558749467E-4 -0.05664949491620064 -0.4437320828437805 0.2867632508277893 -0.21012897789478302 -0.09063347429037094 -0.2165505290031433 0.34884876012802124 0.10654797405004501 0.10351671278476715 -0.10956468433141708 -0.32827648520469666 -0.18305319547653198 -0.1106768473982811 0.39748427271842957 -0.2388639748096466 0.23041987419128418 0.012509757652878761 0.14623092114925385 0.2550068497657776 -0.23820637166500092 0.29070958495140076 -0.2658748924732208 -0.12963330745697021 0.14340080320835114 -0.2596496045589447 -0.17742057144641876 -0.38897112011909485 -0.525852620601654 -0.1261526346206665 0.08416569232940674 0.3744700849056244 -0.07830183953046799 0.1248750314116478 -0.06710305064916611 0.2778695821762085 -0.1618902087211609 -0.15069431066513062 -0.07881177961826324 -0.1467781513929367 0.1332853138446808 -0.05094842612743378 0.08957847952842712 0.12791459262371063
think 0.19913040101528168 0.1506817638874054 0.11131206154823303 0.18312054872512817 0.2633291184902191 0.15587086975574493 -0.20180818438529968 -0.20356270670890808 0.26912763714790344 -0.06545516103506088 0.03655227646231651 -0.027106693014502525 -0.04436910152435303 0.07158396393060684 0.04776700958609581 0.3594420254230499 -0.09755388647317886 -0.2732454240322113 -0.17093968391418457 -0.016342921182513237 0.11352107673883438 0.2505098581314087 -0.05473510921001434 0.11199134588241577 -0.3251293897628784 -0.05987546220421791 -0.04352763667702675 0.03616832569241524 -0.1017235741019249 -0.3091726303100586 0.09712006896734238 0.39817342162132263 0.04187043011188507 -0.0947413519024849 0.2990730404853821 -0.3934207856655121 -0.17775797843933105 0.20081304013729095 -0.16415341198444366 -0.05421644449234009 -0.050612110644578934 0.37553146481513977 -0.07534878700971603 0.23925192654132843 0.2356104999780655 0.22814445197582245 0.11051928251981735 0.2867961823940277 -0.1491500437259674 0.10327287763357162 -0.16126815974712372 0.07081384211778641 0.083951935172081 -0.11133124679327011 0.017861131578683853 0.31349536776542664 0.09284716844558716 -0.13326577842235565 -0.08578614890575409 0.10432880371809006 -0.012143518775701523 -0.16418029367923737 0.048782166093587875 0.40257173776626587 -0.1615656465291977 -0.2726859152317047 -0.19076098501682281 0.04103325307369232 0.21679262816905975 0.17482782900333405 0.191714346408844 -0.1743018627166748 0.042811959981918335 -0.14421238005161285 -0.3059530556201935 -0.029520826414227486 0.1385585516691208 0.05923040956258774 -0.02854444459080696 -0.13525265455245972 -0.18753355741500854 0.175406351685524 -0.1352749466896057 0.14636056125164032 -0.20680248737335205 -0.08024123311042786 0.14322802424430847 -0.21518656611442566 0.1140706017613411 0.10254919528961182 0.11309033632278442 -0.04121993109583855 -0.0381644144654274 -0.09893488883972168 0.04257713258266449 -0.15479467809200287 0.0821007639169693 -0.10855571180582047 -0.05399799719452858 0.0341368168592453
set 0.13809165358543396 0.12211554497480392 0.26230400800704956 -0.10977552831172943 0.06225540488958359 0.1863359659910202 -0.12000180780887604 -0.04428394138813019 0.12336079031229019 -0.10678312927484512 0.4189460277557373 -0.13804447650909424 0.07274261862039566 0.05599222332239151 -0.02202191948890686 -0.04447038844227791 -0.012637132778763771 0.15658678114414215 0.009501541033387184 0.09176884591579437 -0.08529052138328552 -0.07560750097036362 0.070375457406044 -0.16544990241527557 -0.0867617130279541 -0.1242399513721466 -0.06912901997566223 -0.08265236020088196 -0.1176585853099823 0.13332808017730713 -0.10357946157455444 0.07221132516860962 0.11525576561689377 -0.10798734426498413 0.031888045370578766 -0.036963094025850296 0.12201568484306335 -0.14930863678455353 0.005503053776919842 -0.0810348391532898 -0.030634358525276184 -0.09104777127504349 -0.1113106980919838 -0.08938167244195938 -0.2810514569282532 -0.20892749726772308 0.024294285103678703 0.10602959990501404 0.0039283884689211845 -0.18083392083644867 -0.13472433388233185 0.019787007942795753 0.170878604054451 0.04437229037284851 0.11653774976730347 0.045830003917217255 -0.010925371199846268 0.05779983475804329 -0.17769403755664825 -0.002255326136946678 -0.12344550341367722 0.09819218516349792 -0.19196602702140808 -0.12822622060775757 0.17192327976226807 0.037481751292943954 0.013224714435636997 -0.053993143141269684 0.10461151599884033 0.13001060485839844 0.11487731337547302 0.06359853595495224 -0.08526027947664261 0.2020595222711563 -0.038462281227111816 -0.07012652605772018 0.0035836619790643454 -0.08155012875795364 0.06096012890338898 0.23019875586032867 -0.07640628516674042 0.046165335923433304 2.7615416911430657E-4 0.02355358377099037 -0.05659632012248039 -0.007929780520498753 -0.0597744919359684 -0.15866653621196747 0.041630443185567856 -0.3364828824996948 0.06849680840969086 0.140281081199646 -0.22896863520145416 -0.12198756635189056 0.030571740120649338 0.02041499689221382 0.2815614342689514 0.05034903064370155 -0.06253936886787415 0.11644750833511353
